{"learner":{"attributes":{"scikit_learn":"{\"_estimator_type\": \"classifier\"}"},"feature_names":[],"feature_types":[],"gradient_booster":{"model":{"gbtree_model_param":{"num_parallel_tree":"1","num_trees":"2600"},"iteration_indptr":[0,26,52,78,104,130,156,182,208,234,260,286,312,338,364,390,416,442,468,494,520,546,572,598,624,650,676,702,728,754,780,806,832,858,884,910,936,962,988,1014,1040,1066,1092,1118,1144,1170,1196,1222,1248,1274,1300,1326,1352,1378,1404,1430,1456,1482,1508,1534,1560,1586,1612,1638,1664,1690,1716,1742,1768,1794,1820,1846,1872,1898,1924,1950,1976,2002,2028,2054,2080,2106,2132,2158,2184,2210,2236,2262,2288,2314,2340,2366,2392,2418,2444,2470,2496,2522,2548,2574,2600],"tree_info":[0,1,2,3,4,5,6,7,8,9,10,11,12,13,14,15,16,17,18,19,20,21,22,23,24,25,0,1,2,3,4,5,6,7,8,9,10,11,12,13,14,15,16,17,18,19,20,21,22,23,24,25,0,1,2,3,4,5,6,7,8,9,10,11,12,13,14,15,16,17,18,19,20,21,22,23,24,25,0,1,2,3,4,5,6,7,8,9,10,11,12,13,14,15,16,17,18,19,20,21,22,23,24,25,0,1,2,3,4,5,6,7,8,9,10,11,12,13,14,15,16,17,18,19,20,21,22,23,24,25,0,1,2,3,4,5,6,7,8,9,10,11,12,13,14,15,16,17,18,19,20,21,22,23,24,25,0,1,2,3,4,5,6,7,8,9,10,11,12,13,14,15,16,17,18,19,20,21,22,23,24,25,0,1,2,3,4,5,6,7,8,9,10,11,12,13,14,15,16,17,18,19,20,21,22,23,24,25,0,1,2,3,4,5,6,7,8,9,10,11,12,13,14,15,16,17,18,19,20,21,22,23,24,25,0,1,2,3,4,5,6,7,8,9,10,11,12,13,14,15,16,17,18,19,20,21,22,23,24,25,0,1,2,3,4,5,6,7,8,9,10,11,12,13,14,15,16,17,18,19,20,21,22,23,24,25,0,1,2,3,4,5,6,7,8,9,10,11,12,13,14,15,16,17,18,19,20,21,22,23,24,25,0,1,2,3,4,5,6,7,8,9,10,11,12,13,14,15,16,17,18,19,20,21,22,23,24,25,0,1,2,3,4,5,6,7,8,9,10,11,12,13,14,15,16,17,18,19,20,21,22,23,24,25,0,1,2,3,4,5,6,7,8,9,10,11,12,13,14,15,16,17,18,19,20,21,22,23,24,25,0,1,2,3,4,5,6,7,8,9,10,11,12,13,14,15,16,17,18,19,20,21,22,23,24,25,0,1,2,3,4,5,6,7,8,9,10,11,12,13,14,15,16,17,18,19,20,21,22,23,24,25,0,1,2,3,4,5,6,7,8,9,10,11,12,13,14,15,16,17,18,19,20,21,22,23,24,25,0,1,2,3,4,5,6,7,8,9,10,11,12,13,14,15,16,17,18,19,20,21,22,23,24,25,0,1,2,3,4,5,6,7,8,9,10,11,12,13,14,15,16,17,18,19,20,21,22,23,24,25,0,1,2,3,4,5,6,7,8,9,10,11,12,13,14,15,16,17,18,19,20,21,22,23,24,25,0,1,2,3,4,5,6,7,8,9,10,11,12,13,14,15,16,17,18,19,20,21,22,23,24,25,0,1,2,3,4,5,6,7,8,9,10,11,12,13,14,15,16,17,18,19,20,21,22,23,24,25,0,1,2,3,4,5,6,7,8,9,10,11,12,13,14,15,16,17,18,19,20,21,22,23,24,25,0,1,2,3,4,5,6,7,8,9,10,11,12,13,14,15,16,17,18,19,20,21,22,23,24,25,0,1,2,3,4,5,6,7,8,9,10,11,12,13,14,15,16,17,18,19,20,21,22,23,24,25,0,1,2,3,4,5,6,7,8,9,10,11,12,13,14,15,16,17,18,19,20,21,22,23,24,25,0,1,2,3,4,5,6,7,8,9,10,11,12,13,14,15,16,17,18,19,20,21,22,23,24,25,0,1,2,3,4,5,6,7,8,9,10,11,12,13,14,15,16,17,18,19,20,21,22,23,24,25,0,1,2,3,4,5,6,7,8,9,10,11,12,13,14,15,16,17,18,19,20,21,22,23,24,25,0,1,2,3,4,5,6,7,8,9,10,11,12,13,14,15,16,17,18,19,20,21,22,23,24,25,0,1,2,3,4,5,6,7,8,9,10,11,12,13,14,15,16,17,18,19,20,21,22,23,24,25,0,1,2,3,4,5,6,7,8,9,10,11,12,13,14,15,16,17,18,19,20,21,22,23,24,25,0,1,2,3,4,5,6,7,8,9,10,11,12,13,14,15,16,17,18,19,20,21,22,23,24,25,0,1,2,3,4,5,6,7,8,9,10,11,12,13,14,15,16,17,18,19,20,21,22,23,24,25,0,1,2,3,4,5,6,7,8,9,10,11,12,13,14,15,16,17,18,19,20,21,22,23,24,25,0,1,2,3,4,5,6,7,8,9,10,11,12,13,14,15,16,17,18,19,20,21,22,23,24,25,0,1,2,3,4,5,6,7,8,9,10,11,12,13,14,15,16,17,18,19,20,21,22,23,24,25,0,1,2,3,4,5,6,7,8,9,10,11,12,13,14,15,16,17,18,19,20,21,22,23,24,25,0,1,2,3,4,5,6,7,8,9,10,11,12,13,14,15,16,17,18,19,20,21,22,23,24,25,0,1,2,3,4,5,6,7,8,9,10,11,12,13,14,15,16,17,18,19,20,21,22,23,24,25,0,1,2,3,4,5,6,7,8,9,10,11,12,13,14,15,16,17,18,19,20,21,22,23,24,25,0,1,2,3,4,5,6,7,8,9,10,11,12,13,14,15,16,17,18,19,20,21,22,23,24,25,0,1,2,3,4,5,6,7,8,9,10,11,12,13,14,15,16,17,18,19,20,21,22,23,24,25,0,1,2,3,4,5,6,7,8,9,10,11,12,13,14,15,16,17,18,19,20,21,22,23,24,25,0,1,2,3,4,5,6,7,8,9,10,11,12,13,14,15,16,17,18,19,20,21,22,23,24,25,0,1,2,3,4,5,6,7,8,9,10,11,12,13,14,15,16,17,18,19,20,21,22,23,24,25,0,1,2,3,4,5,6,7,8,9,10,11,12,13,14,15,16,17,18,19,20,21,22,23,24,25,0,1,2,3,4,5,6,7,8,9,10,11,12,13,14,15,16,17,18,19,20,21,22,23,24,25,0,1,2,3,4,5,6,7,8,9,10,11,12,13,14,15,16,17,18,19,20,21,22,23,24,25,0,1,2,3,4,5,6,7,8,9,10,11,12,13,14,15,16,17,18,19,20,21,22,23,24,25,0,1,2,3,4,5,6,7,8,9,10,11,12,13,14,15,16,17,18,19,20,21,22,23,24,25,0,1,2,3,4,5,6,7,8,9,10,11,12,13,14,15,16,17,18,19,20,21,22,23,24,25,0,1,2,3,4,5,6,7,8,9,10,11,12,13,14,15,16,17,18,19,20,21,22,23,24,25,0,1,2,3,4,5,6,7,8,9,10,11,12,13,14,15,16,17,18,19,20,21,22,23,24,25,0,1,2,3,4,5,6,7,8,9,10,11,12,13,14,15,16,17,18,19,20,21,22,23,24,25,0,1,2,3,4,5,6,7,8,9,10,11,12,13,14,15,16,17,18,19,20,21,22,23,24,25,0,1,2,3,4,5,6,7,8,9,10,11,12,13,14,15,16,17,18,19,20,21,22,23,24,25,0,1,2,3,4,5,6,7,8,9,10,11,12,13,14,15,16,17,18,19,20,21,22,23,24,25,0,1,2,3,4,5,6,7,8,9,10,11,12,13,14,15,16,17,18,19,20,21,22,23,24,25,0,1,2,3,4,5,6,7,8,9,10,11,12,13,14,15,16,17,18,19,20,21,22,23,24,25,0,1,2,3,4,5,6,7,8,9,10,11,12,13,14,15,16,17,18,19,20,21,22,23,24,25,0,1,2,3,4,5,6,7,8,9,10,11,12,13,14,15,16,17,18,19,20,21,22,23,24,25,0,1,2,3,4,5,6,7,8,9,10,11,12,13,14,15,16,17,18,19,20,21,22,23,24,25,0,1,2,3,4,5,6,7,8,9,10,11,12,13,14,15,16,17,18,19,20,21,22,23,24,25,0,1,2,3,4,5,6,7,8,9,10,11,12,13,14,15,16,17,18,19,20,21,22,23,24,25,0,1,2,3,4,5,6,7,8,9,10,11,12,13,14,15,16,17,18,19,20,21,22,23,24,25,0,1,2,3,4,5,6,7,8,9,10,11,12,13,14,15,16,17,18,19,20,21,22,23,24,25,0,1,2,3,4,5,6,7,8,9,10,11,12,13,14,15,16,17,18,19,20,21,22,23,24,25,0,1,2,3,4,5,6,7,8,9,10,11,12,13,14,15,16,17,18,19,20,21,22,23,24,25,0,1,2,3,4,5,6,7,8,9,10,11,12,13,14,15,16,17,18,19,20,21,22,23,24,25,0,1,2,3,4,5,6,7,8,9,10,11,12,13,14,15,16,17,18,19,20,21,22,23,24,25,0,1,2,3,4,5,6,7,8,9,10,11,12,13,14,15,16,17,18,19,20,21,22,23,24,25,0,1,2,3,4,5,6,7,8,9,10,11,12,13,14,15,16,17,18,19,20,21,22,23,24,25,0,1,2,3,4,5,6,7,8,9,10,11,12,13,14,15,16,17,18,19,20,21,22,23,24,25,0,1,2,3,4,5,6,7,8,9,10,11,12,13,14,15,16,17,18,19,20,21,22,23,24,25,0,1,2,3,4,5,6,7,8,9,10,11,12,13,14,15,16,17,18,19,20,21,22,23,24,25,0,1,2,3,4,5,6,7,8,9,10,11,12,13,14,15,16,17,18,19,20,21,22,23,24,25,0,1,2,3,4,5,6,7,8,9,10,11,12,13,14,15,16,17,18,19,20,21,22,23,24,25,0,1,2,3,4,5,6,7,8,9,10,11,12,13,14,15,16,17,18,19,20,21,22,23,24,25,0,1,2,3,4,5,6,7,8,9,10,11,12,13,14,15,16,17,18,19,20,21,22,23,24,25,0,1,2,3,4,5,6,7,8,9,10,11,12,13,14,15,16,17,18,19,20,21,22,23,24,25,0,1,2,3,4,5,6,7,8,9,10,11,12,13,14,15,16,17,18,19,20,21,22,23,24,25,0,1,2,3,4,5,6,7,8,9,10,11,12,13,14,15,16,17,18,19,20,21,22,23,24,25,0,1,2,3,4,5,6,7,8,9,10,11,12,13,14,15,16,17,18,19,20,21,22,23,24,25,0,1,2,3,4,5,6,7,8,9,10,11,12,13,14,15,16,17,18,19,20,21,22,23,24,25,0,1,2,3,4,5,6,7,8,9,10,11,12,13,14,15,16,17,18,19,20,21,22,23,24,25,0,1,2,3,4,5,6,7,8,9,10,11,12,13,14,15,16,17,18,19,20,21,22,23,24,25,0,1,2,3,4,5,6,7,8,9,10,11,12,13,14,15,16,17,18,19,20,21,22,23,24,25,0,1,2,3,4,5,6,7,8,9,10,11,12,13,14,15,16,17,18,19,20,21,22,23,24,25,0,1,2,3,4,5,6,7,8,9,10,11,12,13,14,15,16,17,18,19,20,21,22,23,24,25,0,1,2,3,4,5,6,7,8,9,10,11,12,13,14,15,16,17,18,19,20,21,22,23,24,25,0,1,2,3,4,5,6,7,8,9,10,11,12,13,14,15,16,17,18,19,20,21,22,23,24,25,0,1,2,3,4,5,6,7,8,9,10,11,12,13,14,15,16,17,18,19,20,21,22,23,24,25,0,1,2,3,4,5,6,7,8,9,10,11,12,13,14,15,16,17,18,19,20,21,22,23,24,25,0,1,2,3,4,5,6,7,8,9,10,11,12,13,14,15,16,17,18,19,20,21,22,23,24,25,0,1,2,3,4,5,6,7,8,9,10,11,12,13,14,15,16,17,18,19,20,21,22,23,24,25,0,1,2,3,4,5,6,7,8,9,10,11,12,13,14,15,16,17,18,19,20,21,22,23,24,25,0,1,2,3,4,5,6,7,8,9,10,11,12,13,14,15,16,17,18,19,20,21,22,23,24,25,0,1,2,3,4,5,6,7,8,9,10,11,12,13,14,15,16,17,18,19,20,21,22,23,24,25],"trees":[{"base_weights":[1.7002283E-2,3.2046452E0,-3.9328608E-1,1.2575306E0,-5.0313497E-1,9.3676203E-1,-4.5560524E-1,2.2674417E-2,-5.1416334E-2,1.067267E0,-4.8104337E-1,-5.1566553E-1,-2.0725014E-2,2.0056099E-2,-5.062827E-2,-2.5490198E-1,-5.1687874E-2,-5.1516987E-2,8.112516E0,2.2674417E-2,-4.0931992E-2,-3.0381305E-2,1.0471807E0],"categories":[],"categories_nodes":[],"categories_segments":[],"categories_sizes":[],"default_left":[0,0,0,0,0,0,0,0,0,0,0,0,0,0,0,0,0,0,0,0,0,0,0],"id":0,"left_children":[1,3,5,-1,7,9,11,-1,-1,-1,13,15,17,-1,-1,19,-1,-1,21,-1,-1,-1,-1],"loss_changes":[1.4272765E3,4.3301484E3,8.057092E1,0E0,8.4204865E-1,6.0702094E2,2.4131119E1,0E0,0E0,0E0,7.727728E-1,1.2513733E-1,4.594229E2,0E0,0E0,5.1925576E-1,0E0,0E0,1.3318909E2,0E0,0E0,0E0,0E0],"parents":[2147483647,0,0,1,1,2,2,4,4,5,5,6,6,10,10,11,11,12,12,15,15,18,18],"right_children":[2,4,6,-1,8,10,12,-1,-1,-1,14,16,18,-1,-1,20,-1,-1,22,-1,-1,-1,-1],"split_conditions":[-3.5225466E-1,-3.451198E-1,-2.8989327E-1,1.2575306E0,-3.245172E-1,-3.2754222E-1,1.2029371E-1,2.2674417E-2,-5.1416334E-2,1.067267E0,-3.0143335E-1,-2.7156758E-1,2.21147E-1,2.0056099E-2,-5.062827E-2,9.822378E-1,-5.1687874E-2,-5.1516987E-2,8.423583E-1,2.2674417E-2,-4.0931992E-2,-3.0381305E-2,1.0471807E0],"split_indices":[13,26,13,0,26,26,30,0,0,0,26,13,25,0,0,1,0,0,1,0,0,0,0],"split_type":[0,0,0,0,0,0,0,0,0,0,0,0,0,0,0,0,0,0,0,0,0,0,0],"sum_hessian":[1.0893491E3,1.2344675E2,9.659024E2,3.4319527E1,8.912722E1,4.260355E1,9.232988E2,1.035503E0,8.809172E1,4.5857987E0,3.8017754E1,8.1109467E2,1.1220415E2,1.1094675E0,3.6908283E1,4.733728E0,8.0636096E2,1.0665681E2,5.5473375E0,1.035503E0,3.698225E0,1.4053255E0,4.142012E0],"tree_param":{"num_deleted":"0","num_feature":"63","num_nodes":"23","size_leaf_vector":"1"}},{"base_weights":[-1.7848937E-2,-5.124864E-1,5.4527917E0,-5.1846826E-1,1.6588853E-1,1.2658659E0,-5.0969936E-2,-5.1947374E-2,-2.2858766E-1,2.6831394E-1,-4.5860987E-2,2.2674417E-2,-3.956122E-2],"categories":[],"categories_nodes":[],"categories_segments":[],"categories_sizes":[],"default_left":[0,0,0,0,0,0,0,0,0,0,0,0,0],"id":1,"left_children":[1,3,5,7,9,-1,-1,-1,11,-1,-1,-1,-1],"loss_changes":[2.9532615E3,4.147461E0,3.8946497E3,1.7050171E-1,1.6174E1,0E0,0E0,0E0,4.8638606E-1,0E0,0E0,0E0,0E0],"parents":[2147483647,0,0,1,1,2,2,3,3,4,4,8,8],"right_children":[2,4,6,8,10,-1,-1,-1,12,-1,-1,-1,-1],"split_conditions":[-7.596152E-2,-7.917356E-2,3.6165896E-1,-8.078045E-2,9.841576E-1,1.2658659E0,-5.0969936E-2,-5.1947374E-2,9.962759E-1,2.6831394E-1,-4.5860987E-2,2.2674417E-2,-3.956122E-2],"split_indices":[32,32,21,32,1,0,0,0,1,0,0,0,0],"split_type":[0,0,0,0,0,0,0,0,0,0,0,0,0],"sum_hessian":[1.0893491E3,9.998521E2,8.949705E1,9.913462E2,8.505918E0,4.0014793E1,4.948225E1,9.871302E2,4.215976E0,1.035503E0,7.470414E0,1.035503E0,3.1804736E0],"tree_param":{"num_deleted":"0","num_feature":"63","num_nodes":"13","size_leaf_vector":"1"}},{"base_weights":[-1.3263251E-2,-4.6079868E-1,8.899081E0,-5.0090444E-1,1.850404E0,1.18200245E1,-4.8105475E-2,-5.1846005E-2,-8.498152E-3,9.2392206E-1,-4.1648197E-1,-3.720539E-2,1.2651628E0,-4.7650895E-1,7.241153E-1,2.2674417E-2,-4.81899E-2,-5.0466724E-2,2.2674417E-2],"categories":[],"categories_nodes":[],"categories_segments":[],"categories_sizes":[],"default_left":[0,0,0,0,0,0,0,0,0,0,0,0,0,0,0,0,0,0,0],"id":2,"left_children":[1,3,5,7,9,11,-1,-1,13,-1,15,-1,-1,17,-1,-1,-1,-1,-1],"loss_changes":[4.353056E3,9.724986E1,1.4354517E3,8.832214E0,3.043002E2,4.0855615E2,0E0,0E0,1.2629808E2,0E0,7.271161E-1,0E0,0E0,8.065162E-1,0E0,0E0,0E0,0E0,0E0],"parents":[2147483647,0,0,1,1,2,2,3,3,4,4,5,5,8,8,10,10,13,13],"right_children":[2,4,6,8,10,12,-1,-1,14,-1,16,-1,-1,18,-1,-1,-1,-1,-1],"split_conditions":[-3.5642214E-2,-6.689874E-2,-3.1670433E-1,-3.372046E-2,1.9293582E-1,6.074118E-1,-4.8105475E-2,-5.1846005E-2,7.8519577E-1,9.2392206E-1,-1.6735497E-1,-3.720539E-2,1.2651628E0,7.5519675E-1,7.241153E-1,2.2674417E-2,-4.81899E-2,-5.0466724E-2,2.2674417E-2],"split_indices":[14,14,22,11,18,4,0,0,4,0,0,0,0,4,0,0,0,0,0],"split_type":[0,0,0,0,0,0,0,0,0,0,0,0,0,0,0,0,0,0,0],"sum_hessian":[1.0893491E3,1.0381656E3,5.1183434E1,1.02122784E3,1.693787E1,3.8831364E1,1.2352072E1,9.8602075E2,3.52071E1,3.254438E0,1.3683433E1,2.514793E0,3.631657E1,3.3949703E1,1.2573965E0,1.035503E0,1.2647929E1,3.2914204E1,1.035503E0],"tree_param":{"num_deleted":"0","num_feature":"63","num_nodes":"19","size_leaf_vector":"1"}},{"base_weights":[1.7919421E-2,1.0481788E1,-3.7312284E-1,-4.4935692E-2,1.2605494E0,3.752577E0,-4.931037E-1,1.1749218E0,-4.9457546E-2,4.1004354E-1,-5.184734E-1,-5.0044507E-2,8.552632E-1,4.2716297E-3,-5.1947683E-2],"categories":[],"categories_nodes":[],"categories_segments":[],"categories_sizes":[],"default_left":[0,0,0,0,0,0,0,0,0,0,0,0,0,0,0],"id":3,"left_children":[1,3,5,-1,-1,7,9,-1,-1,11,13,-1,-1,-1,-1],"loss_changes":[4.4654175E3,9.18312E2,5.226133E2,0E0,0E0,1.01947424E3,2.3656464E1,0E0,0E0,2.1568118E2,5.8291626E-1,0E0,0E0,0E0,0E0],"parents":[2147483647,0,0,1,1,2,2,5,5,6,6,9,9,10,10],"right_children":[2,4,6,-1,-1,8,10,-1,-1,12,14,-1,-1,-1,-1],"split_conditions":[-3.0301163E-1,-3.1670433E-1,-3.9411584E-1,-4.4935692E-2,1.2605494E0,-4.1747785E-1,-5.4346687E-1,1.1749218E0,-4.9457546E-2,-6.8649866E-2,-2.9687643E-1,-5.0044507E-2,8.552632E-1,4.2716297E-3,-5.1947683E-2],"split_indices":[53,22,62,0,0,58,58,0,0,8,53,0,0,0,0],"split_type":[0,0,0,0,0,0,0,0,0,0,0,0,0,0,0],"sum_hessian":[1.0893491E3,3.831361E1,1.0510355E3,6.360947E0,3.1952663E1,2.8846155E1,1.0221894E3,9.393492E0,1.9452663E1,2.7514793E1,9.9467456E2,2.5591717E1,1.923077E0,1.7011834E0,9.929734E2],"tree_param":{"num_deleted":"0","num_feature":"63","num_nodes":"15","size_leaf_vector":"1"}},{"base_weights":[5.9966347E-3,2.8716226E0,-4.95752E-1,1.2688655E0,-5.1573277E-2,7.1008396E-1,-5.1942945E-2,8.051802E-1,-4.8882585E-2],"categories":[],"categories_nodes":[],"categories_segments":[],"categories_sizes":[],"default_left":[0,0,0,0,0,0,0,0,0],"id":4,"left_children":[1,3,5,-1,-1,7,-1,-1,-1],"loss_changes":[1.5691537E3,5.4140215E3,2.6885315E1,0E0,0E0,1.6508127E2,0E0,0E0,0E0],"parents":[2147483647,0,0,1,1,2,2,5,5],"right_children":[2,4,6,-1,-1,8,-1,-1,-1],"split_conditions":[-3.8981783E-1,2.4270506E-1,-3.665765E-1,1.2688655E0,-5.1573277E-2,2.4486327E-1,-5.1942945E-2,8.051802E-1,-4.8882585E-2],"split_indices":[43,9,43,0,0,9,0,0,0],"split_type":[0,0,0,0,0,0,0,0,0],"sum_hessian":[1.0893491E3,1.6161243E2,9.277367E2,4.075444E1,1.20857994E2,1.7307693E1,9.10429E2,1.627219E0,1.5680473E1],"tree_param":{"num_deleted":"0","num_feature":"63","num_nodes":"9","size_leaf_vector":"1"}},{"base_weights":[-1.3263251E-2,1.2172976E1,-5.1950373E-2,-3.274918E-2,1.2689207E0],"categories":[],"categories_nodes":[],"categories_segments":[],"categories_sizes":[],"default_left":[0,0,0,0,0],"id":5,"left_children":[1,3,-1,-1,-1],"loss_changes":[6.7328706E3,2.8505713E2,0E0,0E0,0E0],"parents":[2147483647,0,0,1,1],"right_children":[2,4,-1,-1,-1],"split_conditions":[-6.106818E-1,4.409363E-2,-5.1950373E-2,-3.274918E-2,1.2689207E0],"split_indices":[46,16,0,0,0],"split_type":[0,0,0,0,0],"sum_hessian":[1.0893491E3,4.2529587E1,1.0468196E3,1.7011834E0,4.0828403E1],"tree_param":{"num_deleted":"0","num_feature":"63","num_nodes":"5","size_leaf_vector":"1"}},{"base_weights":[-2.793745E-2,1.160103E1,-5.1186824E-1,-4.0572174E-2,1.2675432E0,3.1744185E-1,-5.1854783E-1,-5.1950216E-2,-4.7794137E-2,-2.8184284E-2,2.2674417E-2],"categories":[],"categories_nodes":[],"categories_segments":[],"categories_sizes":[],"default_left":[0,0,0,0,0,0,0,0,0,0,0],"id":6,"left_children":[1,3,5,-1,-1,-1,7,-1,9,-1,-1],"loss_changes":[6.142005E3,5.6763086E2,2.744458E1,0E0,0E0,0E0,4.4537354E-1,0E0,2.707399E-1,0E0,0E0],"parents":[2147483647,0,0,1,1,2,2,6,6,8,8],"right_children":[2,4,6,-1,-1,-1,8,-1,10,-1,-1],"split_conditions":[-2.5352374E-1,4.274832E-2,-5.562055E-1,-4.0572174E-2,1.2675432E0,3.1744185E-1,4.7102708E-1,-5.1950216E-2,-1.41854305E-2,-2.8184284E-2,2.2674417E-2],"split_indices":[10,2,19,0,0,0,52,0,0,0,0],"split_type":[0,0,0,0,0,0,0,0,0,0,0],"sum_hessian":[1.0893491E3,4.260355E1,1.0467456E3,3.5502958E0,3.9053257E1,1.035503E0,1.0457101E3,1.0434912E3,2.218935E0,1.183432E0,1.035503E0],"tree_param":{"num_deleted":"0","num_feature":"63","num_nodes":"11","size_leaf_vector":"1"}},{"base_weights":[-2.060035E-2,1.0055966E1,-4.830842E-1,1.2661687E0,-4.7032222E-2,2.302406E0,-5.1949557E-2,-4.720175E-2,9.5885086E-1],"categories":[],"categories_nodes":[],"categories_segments":[],"categories_sizes":[],"default_left":[0,0,0,0,0,0,0,0,0],"id":7,"left_children":[1,3,5,-1,-1,7,-1,-1,-1],"loss_changes":[5.0861567E3,1.319605E3,1.0702698E2,0E0,0E0,2.8041522E2,0E0,0E0,0E0],"parents":[2147483647,0,0,1,1,2,2,5,5],"right_children":[2,4,6,-1,-1,8,-1,-1,-1],"split_conditions":[-6.7392623E-1,2.2259976E-1,-6.2435615E-1,1.2661687E0,-4.7032222E-2,7.0623964E-1,-5.1949557E-2,-4.720175E-2,9.5885086E-1],"split_indices":[36,10,36,0,0,1,0,0,0],"split_type":[0,0,0,0,0,0,0,0,0],"sum_hessian":[1.0893491E3,4.6893494E1,1.0424557E3,3.7426037E1,9.467456E0,1.2647929E1,1.0298077E3,9.837278E0,2.810651E0],"tree_param":{"num_deleted":"0","num_feature":"63","num_nodes":"9","size_leaf_vector":"1"}},{"base_weights":[8.748047E-3,9.468971E0,-4.6561408E-1,1.2670565E0,-4.81899E-2,1.3148354E0,-5.1159596E-1,1.0143043E0,-4.9728613E-2,-1.5801579E-1,-5.1747185E-1,2.6831394E-1,-4.8936915E-2,-4.7794137E-2,-5.184717E-2,2.2674417E-2,-2.8184284E-2],"categories":[],"categories_nodes":[],"categories_segments":[],"categories_sizes":[],"default_left":[0,0,0,0,0,0,0,0,0,0,0,0,0,0,0,0,0],"id":8,"left_children":[1,3,5,-1,-1,7,9,-1,-1,11,13,-1,-1,15,-1,-1,-1],"loss_changes":[4.8974287E3,1.6662427E3,8.5753525E1,0E0,0E0,4.2808603E2,2.0245056E0,0E0,0E0,1.826986E1,4.4329834E-1,0E0,0E0,2.707399E-1,0E0,0E0,0E0],"parents":[2147483647,0,0,1,1,2,2,5,5,6,6,9,9,10,10,13,13],"right_children":[2,4,6,-1,-1,8,10,-1,-1,12,14,-1,-1,16,-1,-1,-1],"split_conditions":[-7.40386E-1,-7.553495E-2,-6.8106616E-1,1.2670565E0,-4.81899E-2,4.7143564E-1,-6.503041E-1,1.0143043E0,-4.9728613E-2,3.302272E-1,-5.3528473E-2,2.6831394E-1,-4.8936915E-2,9.791943E-1,-5.184717E-2,2.2674417E-2,-2.8184284E-2],"split_indices":[61,5,61,0,0,12,61,0,0,7,2,0,0,1,0,0,0],"split_type":[0,0,0,0,0,0,0,0,0,0,0,0,0,0,0,0,0],"sum_hessian":[1.0893491E3,5.110947E1,1.0382396E3,3.846154E1,1.2647929E1,2.5443789E1,1.0127959E3,3.5502958E0,2.1893492E1,1.7011835E1,9.9578406E2,1.035503E0,1.5976332E1,2.218935E0,9.935651E2,1.035503E0,1.183432E0],"tree_param":{"num_deleted":"0","num_feature":"63","num_nodes":"17","size_leaf_vector":"1"}},{"base_weights":[-2.2434624E-2,5.7840343E0,-5.1948275E-2,1.2683611E0,-5.086884E-2],"categories":[],"categories_nodes":[],"categories_segments":[],"categories_sizes":[],"default_left":[0,0,0,0,0],"id":9,"left_children":[1,3,-1,-1,-1],"loss_changes":[3.1498552E3,3.742894E3,0E0,0E0,0E0],"parents":[2147483647,0,0,1,1],"right_children":[2,4,-1,-1,-1],"split_conditions":[-7.489587E-1,-5.2567016E-2,-5.1948275E-2,1.2683611E0,-5.086884E-2],"split_indices":[60,16,0,0,0],"split_type":[0,0,0,0,0],"sum_hessian":[1.0893491E3,8.505917E1,1.00429E3,4.0088757E1,4.4970417E1],"tree_param":{"num_deleted":"0","num_feature":"63","num_nodes":"5","size_leaf_vector":"1"}},{"base_weights":[2.6173657E-2,5.2348504E0,-4.435621E-1,-5.0912578E-2,1.14351845E1,1.7425418E0,-5.081617E-1,1.2643889E0,-2.9919473E-2,-4.9580064E-2,7.2151585E0,4.6858904E-1,-5.163542E-1,7.1802326E-2,-3.9337177E-2,-3.780291E-2,1.0761589E0,3.1744185E-1,-3.195474E-1,-2.0591342E-1,-5.1945567E-2,2.2674417E-2,-4.4057842E-2,1.14866756E-1,-4.685028E-2],"categories":[],"categories_nodes":[],"categories_segments":[],"categories_sizes":[],"default_left":[0,0,0,0,0,0,0,0,0,0,0,0,0,0,0,0,0,0,0,0,0,0,0,0,0],"id":10,"left_children":[1,3,5,-1,7,9,11,-1,13,-1,15,17,19,-1,-1,-1,-1,-1,21,23,-1,-1,-1,-1,-1],"loss_changes":[2.6700813E3,3.2209321E3,1.4225867E2,0E0,6.025825E2,3.5830804E2,8.028809E0,0E0,1.6802623E0,0E0,2.321655E2,1.9393538E1,8.2266235E-1,0E0,0E0,0E0,0E0,0E0,6.0126233E-1,4.524503E0,0E0,0E0,0E0,0E0,0E0],"parents":[2147483647,0,0,1,1,2,2,4,4,5,5,6,6,8,8,10,10,11,11,12,12,18,18,19,19],"right_children":[2,4,6,-1,8,10,12,-1,14,-1,16,18,20,-1,-1,-1,-1,-1,22,24,-1,-1,-1,-1,-1],"split_conditions":[-1.0262656E0,2.7770847E-1,-1.9433792E-1,-5.0912578E-2,-2.974528E-2,1.08289495E-1,-1.0169249E0,1.2643889E0,-3.353712E-2,-4.9580064E-2,9.825066E-1,3.19235E-1,-1.005714E0,7.1802326E-2,-3.9337177E-2,-3.780291E-2,1.0761589E0,3.1744185E-1,7.5519675E-1,-6.8598324E-3,-5.1945567E-2,2.2674417E-2,-4.4057842E-2,1.14866756E-1,-4.685028E-2],"split_indices":[37,18,12,0,13,40,37,0,0,0,1,6,37,0,0,0,0,0,4,5,0,0,0,0,0],"split_type":[0,0,0,0,0,0,0,0,0,0,0,0,0,0,0,0,0,0,0,0,0,0,0,0,0],"sum_hessian":[1.0893491E3,8.927515E1,1.000074E3,4.6819527E1,4.2455624E1,2.795858E1,9.721154E2,3.831361E1,4.142012E0,2.0488167E1,7.470414E0,7.6183434E0,9.644971E2,1.035503E0,3.106509E0,2.6627219E0,4.8076925E0,1.035503E0,6.5828404E0,1.0207101E1,9.5429E2,1.035503E0,5.5473375E0,1.1094675E0,9.097633E0],"tree_param":{"num_deleted":"0","num_feature":"63","num_nodes":"25","size_leaf_vector":"1"}},{"base_weights":[-1.3263251E-2,-4.9198055E-1,6.6177626E0,-5.174929E-1,1.4126778E0,1.2673017E0,-5.050264E-2,-5.194805E-2,-3.6868997E-2,8.3287257E-1,-4.756498E-2,-3.956122E-2,7.1802326E-2],"categories":[],"categories_nodes":[],"categories_segments":[],"categories_sizes":[],"default_left":[0,0,0,0,0,0,0,0,0,0,0,0,0],"id":11,"left_children":[1,3,5,7,9,-1,-1,-1,11,-1,-1,-1,-1],"loss_changes":[3.4644456E3,5.019142E1,3.175839E3,9.4104004E-1,1.8316626E2,0E0,0E0,0E0,1.6966101E0,0E0,0E0,0E0,0E0],"parents":[2147483647,0,0,1,1,2,2,3,3,4,4,8,8],"right_children":[2,4,6,8,10,-1,-1,-1,12,-1,-1,-1,-1],"split_conditions":[8.41941E-1,8.255878E-1,-6.63942E-1,8.2130325E-1,-6.893105E-1,1.2673017E0,-5.050264E-2,-5.194805E-2,9.481376E-1,8.3287257E-1,-4.756498E-2,-3.956122E-2,7.1802326E-2],"split_indices":[4,4,22,4,22,0,0,0,12,0,0,0,0],"split_type":[0,0,0,0,0,0,0,0,0,0,0,0,0],"sum_hessian":[1.0893491E3,1.01686395E3,7.248521E1,1.004142E3,1.2721894E1,3.8757397E1,3.372781E1,9.999261E2,4.215976E0,1.9970415E0,1.0724853E1,3.1804736E0,1.035503E0],"tree_param":{"num_deleted":"0","num_feature":"63","num_nodes":"13","size_leaf_vector":"1"}},{"base_weights":[5.079497E-3,-4.437917E-1,9.784532E0,-5.009403E-1,2.4605856E0,7.2718346E-1,1.0830341E1,-5.184953E-1,7.163736E-1,6.709255E0,6.8079793E-1,3.1744185E-1,-4.1587677E-2,5.2758074E0,1.1679687E1,1.7615175E-2,-5.1948465E-2,4.3014703E0,-2.4414563E-1,8.3731985E-1,1.8294244E-1,4.3247777E-1,-1.833407E-1,7.828929E-1,1.4826146E0,1.7005813E-1,1.1924108E0,6.1300814E-1,2.2674417E-2,-4.706708E-2,5.7352936E-1,-4.756498E-2,1.1533406E-1,3.02214E-1,-3.37487E-2,-2.8184284E-2,1.2093023E-1],"categories":[],"categories_nodes":[],"categories_segments":[],"categories_sizes":[],"default_left":[0,0,0,0,0,0,0,0,0,0,0,0,0,0,0,0,0,0,0,0,0,0,0,0,0,0,0,0,0,0,0,0,0,0,0,0,0],"id":12,"left_children":[1,3,5,7,9,11,13,15,17,19,21,-1,-1,23,25,-1,-1,27,29,-1,-1,-1,31,-1,33,-1,-1,-1,-1,-1,35,-1,-1,-1,-1,-1,-1],"loss_changes":[4.790663E3,1.7442659E2,4.4578418E2,2.2257477E1,1.4897125E2,1.8186953E1,1.4060059E2,7.857361E-1,5.2632183E1,3.2439575E1,4.9358696E1,0E0,0E0,6.111229E1,6.839502E1,0E0,0E0,2.2594604E1,2.633467E0,0E0,0E0,0E0,5.7944617E0,0E0,1.2941263E1,0E0,0E0,0E0,0E0,0E0,2.0913625E0,0E0,0E0,0E0,0E0,0E0,0E0],"parents":[2147483647,0,0,1,1,2,2,3,3,4,4,5,5,6,6,7,7,8,8,9,9,10,10,13,13,14,14,17,17,18,18,22,22,24,24,30,30],"right_children":[2,4,6,8,10,12,14,16,18,20,22,-1,-1,24,26,-1,-1,28,30,-1,-1,-1,32,-1,34,-1,-1,-1,-1,-1,36,-1,-1,-1,-1,-1,-1],"split_conditions":[1.1607355E0,6.7174315E-1,1.1225257E0,1.024978E0,6.7924386E-1,4.619246E-2,8.573935E-3,-4.605604E-1,1.212881E0,8.917392E-3,3.597707E-1,3.1744185E-1,-4.1587677E-2,2.3325497E-1,-4.139166E-1,1.7615175E-2,-5.1948465E-2,3.6422542E-1,-1.05857916E-1,8.3731985E-1,1.8294244E-1,4.3247777E-1,1.4039262E-3,7.828929E-1,1.1037825E0,1.7005813E-1,1.1924108E0,6.1300814E-1,2.2674417E-2,-4.706708E-2,-1.9305998E-1,-4.756498E-2,1.1533406E-1,3.02214E-1,-3.37487E-2,-2.8184284E-2,1.2093023E-1],"split_indices":[61,2,25,25,7,16,12,47,37,56,31,0,0,15,36,0,0,15,30,0,0,0,30,0,34,0,0,0,0,0,0,0,0,0,0,0,0],"split_type":[0,0,0,0,0,0,0,0,0,0,0,0,0,0,0,0,0,0,0,0,0,0,0,0,0,0,0,0,0,0,0,0,0,0,0,0,0],"sum_hessian":[1.0893491E3,1.0424557E3,4.6893494E1,1.02315094E3,1.9304733E1,5.029586E0,4.1863907E1,1.00917163E3,1.397929E1,4.881657E0,1.4423078E1,1.035503E0,3.994083E0,6.508876E0,3.535503E1,1.183432E0,1.0079882E3,2.218935E0,1.1760355E1,3.106509E0,1.7751479E0,1.9970415E0,1.2426036E1,3.254438E0,3.254438E0,1.035503E0,3.4319527E1,1.183432E0,1.035503E0,9.54142E0,2.218935E0,1.0724853E1,1.7011834E0,1.4053255E0,1.8491125E0,1.183432E0,1.035503E0],"tree_param":{"num_deleted":"0","num_feature":"63","num_nodes":"37","size_leaf_vector":"1"}},{"base_weights":[7.830909E-3,-4.91864E-1,6.5264816E0,-5.174949E-1,2.5309732E0,1.0916121E1,2.078957E0,-5.1948257E-2,7.1802326E-2,6.456229E-1,-1.1206899E-1,2.0056099E-2,1.1225652E1,7.9772725E0,8.4573954E-1,7.1802326E-2,-4.1887227E-2,1.1705735E1,2.4374998E0,9.112911E-1,1.14866756E-1,-2.2489263E-1,3.6053116E0,3.1345177E-1,1.1947678E0,-2.8184284E-2,4.1569766E-1,1.3112391E0,-4.9676057E-2,1.8631527E-1,7.976645E-1,-2.9695434E-2,2.1897654E-1,1.6227208E-1,-4.2170025E-2],"categories":[],"categories_nodes":[],"categories_segments":[],"categories_sizes":[],"default_left":[0,0,0,0,0,0,0,0,0,0,0,0,0,0,0,0,0,0,0,0,0,0,0,0,0,0,0,0,0,0,0,0,0,0,0],"id":13,"left_children":[1,3,5,7,9,11,13,-1,-1,-1,15,-1,17,19,21,-1,-1,23,25,-1,-1,27,29,-1,-1,-1,-1,31,-1,33,-1,-1,-1,-1,-1],"loss_changes":[3.5548442E3,7.984531E1,1.4942681E3,2.8433533E0,9.090291E1,1.2667236E2,2.8298285E2,0E0,0E0,0E0,1.8740188E0,0E0,1.3077979E2,4.202655E1,1.0144693E2,0E0,0E0,3.6253906E1,1.622286E1,0E0,0E0,1.1293395E1,1.4169067E2,0E0,0E0,0E0,0E0,6.4521017E0,0E0,6.2732687E0,0E0,0E0,0E0,0E0,0E0],"parents":[2147483647,0,0,1,1,2,2,3,3,4,4,5,5,6,6,10,10,12,12,13,13,14,14,17,17,18,18,21,21,22,22,27,27,29,29],"right_children":[2,4,6,8,10,12,14,-1,-1,-1,16,-1,18,20,22,-1,-1,24,26,-1,-1,28,30,-1,-1,-1,-1,32,-1,34,-1,-1,-1,-1,-1],"split_conditions":[8.246447E-1,5.0082815E-1,1.1906695E0,6.151277E-1,1.6013819E-1,-4.5266032E-1,1.2496902E0,-5.1948257E-2,7.1802326E-2,6.456229E-1,1.7459168E-1,2.0056099E-2,-2.5491893E-1,2.2984788E-1,1.2591115E0,7.1802326E-2,-4.1887227E-2,4.026251E-1,9.40058E-1,9.112911E-1,1.14866756E-1,-2.3971385E-1,4.9071006E-2,3.1345177E-1,1.1947678E0,-2.8184284E-2,4.1569766E-1,6.841144E-2,-4.9676057E-2,1.2464895E0,7.976645E-1,-2.9695434E-2,2.1897654E-1,1.6227208E-1,-4.2170025E-2],"split_indices":[10,43,61,2,12,50,25,0,0,0,8,0,39,12,34,0,0,43,34,0,0,36,16,0,0,0,0,16,0,58,0,0,0,0,0],"split_type":[0,0,0,0,0,0,0,0,0,0,0,0,0,0,0,0,0,0,0,0,0,0,0,0,0,0,0,0,0,0,0,0,0,0,0],"sum_hessian":[1.0893491E3,1.01264795E3,7.670119E1,1.0049556E3,7.692308E0,3.7869823E1,3.8831364E1,1.00392017E3,1.035503E0,2.514793E0,5.177515E0,1.1094675E0,3.6760357E1,5.769231E0,3.306213E1,1.035503E0,4.142012E0,3.454142E1,2.218935E0,4.6597633E0,1.1094675E0,2.4482248E1,8.579882E0,1.3313609E0,3.321006E1,1.183432E0,1.035503E0,3.106509E0,2.137574E1,5.3994083E0,3.1804736E0,1.3313609E0,1.7751479E0,1.1094675E0,4.289941E0],"tree_param":{"num_deleted":"0","num_feature":"63","num_nodes":"35","size_leaf_vector":"1"}},{"base_weights":[1.3333734E-2,-4.6583384E-1,1.0452681E1,-5.175346E-1,1.9246483E0,1.2662985E0,1.1777523E0,-5.1948912E-2,-4.3624185E-2,9.9047613E-1,-2.750882E-1,5.793177E-1,-4.591413E-2,7.1802326E-2,-3.977747E-2,1.7005813E-1,-4.901495E-2],"categories":[],"categories_nodes":[],"categories_segments":[],"categories_sizes":[],"default_left":[0,0,0,0,0,0,0,0,0,0,0,0,0,0,0,0,0],"id":14,"left_children":[1,3,5,7,9,-1,11,-1,13,-1,15,-1,-1,-1,-1,-1,-1],"loss_changes":[5.45901E3,1.2995659E2,9.6692236E2,9.2407227E-1,3.9421332E2,0E0,8.062348E1,0E0,1.7125086E0,0E0,8.675149E0,0E0,0E0,0E0,0E0,0E0,0E0],"parents":[2147483647,0,0,1,1,2,2,3,3,4,4,6,6,8,8,10,10],"right_children":[2,4,6,8,10,-1,12,-1,14,-1,16,-1,-1,-1,-1,-1,-1],"split_conditions":[5.8479244E-1,4.391426E-1,-9.209555E-2,4.2102608E-1,-5.7480544E-2,1.2662985E0,-3.3530995E-1,-5.1948912E-2,7.723813E-2,9.9047613E-1,-5.250441E-3,5.793177E-1,-4.591413E-2,7.1802326E-2,-3.977747E-2,1.7005813E-1,-4.901495E-2],"split_indices":[60,60,13,60,13,0,56,0,2,0,2,0,0,0,0,0,0],"split_type":[0,0,0,0,0,0,0,0,0,0,0,0,0,0,0,0,0],"sum_hessian":[1.0893491E3,1.0424557E3,4.6893494E1,1.0211539E3,2.1301775E1,3.7573967E1,9.319527E0,1.01686395E3,4.289941E0,3.846154E0,1.7455622E1,1.7751479E0,7.5443788E0,1.035503E0,3.254438E0,1.035503E0,1.6420118E1],"tree_param":{"num_deleted":"0","num_feature":"63","num_nodes":"17","size_leaf_vector":"1"}},{"base_weights":[-2.2576018E-3,1.183037E1,-4.946885E-1,-3.835404E-2,1.2681316E0,3.3315818E0,-5.1279473E-1,7.595326E-1,-3.780291E-2,4.4351777E-1,-5.1949855E-2,3.1744185E-1,-4.431818E-2],"categories":[],"categories_nodes":[],"categories_segments":[],"categories_sizes":[],"default_left":[0,0,0,0,0,0,0,0,0,0,0,0,0],"id":15,"left_children":[1,3,5,-1,-1,7,9,-1,-1,11,-1,-1,-1],"loss_changes":[6.3590464E3,4.5805176E2,7.429541E1,0E0,0E0,8.303171E1,6.921356E0,0E0,0E0,2.030592E1,0E0,0E0,0E0],"parents":[2147483647,0,0,1,1,2,2,5,5,6,6,9,9],"right_children":[2,4,6,-1,-1,8,10,-1,-1,12,-1,-1,-1],"split_conditions":[-2.907559E-1,-2.4406919E-1,-1.1221336E-2,-3.835404E-2,1.2681316E0,-5.057533E-1,-2.6826724E-1,7.595326E-1,-3.780291E-2,-1.6085863E-1,-5.1949855E-2,3.1744185E-1,-4.431818E-2],"split_indices":[8,45,4,0,0,18,8,0,0,16,0,0,0],"split_type":[0,0,0,0,0,0,0,0,0,0,0,0,0],"sum_hessian":[1.0893491E3,4.260355E1,1.0467456E3,2.810651E0,3.97929E1,4.0680475E0,1.0426775E3,1.4053255E0,2.6627219E0,6.8047338E0,1.0358728E3,1.035503E0,5.769231E0],"tree_param":{"num_deleted":"0","num_feature":"63","num_nodes":"13","size_leaf_vector":"1"}},{"base_weights":[-1.3263251E-2,1.2465833E1,-4.795831E-1,2.6831394E-1,1.266038E0,3.0833845E0,-5.118348E-1,-4.4561997E-2,9.0989274E-1,-5.166139E-1,6.019242E-1,-2.6136163E-8,-5.185324E-1,2.1918605E-1,-3.8613863E-2,-3.835404E-2,7.1802326E-2,-5.194968E-2,-6.854132E-2,-2.9695434E-2,2.2674417E-2],"categories":[],"categories_nodes":[],"categories_segments":[],"categories_sizes":[],"default_left":[0,0,0,0,0,0,0,0,0,0,0,0,0,0,0,0,0,0,0,0,0],"id":16,"left_children":[1,3,5,-1,-1,7,9,-1,-1,11,13,15,17,-1,-1,-1,-1,-1,19,-1,-1],"loss_changes":[6.350993E3,4.085254E1,1.2246945E2,0E0,0E0,2.074248E2,5.8650208E0,0E0,0E0,1.030304E0,8.575657E0,1.6099776E0,4.1381836E-1,0E0,0E0,0E0,0E0,0E0,2.9441768E-1,0E0,0E0],"parents":[2147483647,0,0,1,1,2,2,5,5,6,6,9,9,10,10,11,11,12,12,18,18],"right_children":[2,4,6,-1,-1,8,10,-1,-1,12,14,16,18,-1,-1,-1,-1,-1,20,-1,-1],"split_conditions":[-3.83358E-1,1.7030583E-1,-3.5585544E-1,2.6831394E-1,1.266038E0,-1.08305074E-1,-6.345992E-2,-4.4561997E-2,9.0989274E-1,-3.4713465E-1,-2.2969398E-1,1.4885984E-1,-7.4865766E-2,2.1918605E-1,-3.8613863E-2,-3.835404E-2,7.1802326E-2,-5.194968E-2,1.8984833E-1,-2.9695434E-2,2.2674417E-2],"split_indices":[30,2,30,0,0,44,44,0,0,30,33,2,44,0,0,0,0,0,2,0,0],"split_type":[0,0,0,0,0,0,0,0,0,0,0,0,0,0,0,0,0,0,0,0,0],"sum_hessian":[1.0893491E3,3.831361E1,1.0510355E3,1.035503E0,3.7278107E1,8.579882E0,1.0424557E3,5.9911246E0,2.5887575E0,1.0385355E3,3.9201183E0,3.846154E0,1.0346893E3,1.035503E0,2.8846154E0,2.810651E0,1.035503E0,1.0323225E3,2.366864E0,1.3313609E0,1.035503E0],"tree_param":{"num_deleted":"0","num_feature":"63","num_nodes":"21","size_leaf_vector":"1"}},{"base_weights":[1.3333734E-2,2.4607644E0,-4.700524E-1,1.2655553E0,-5.091699E-1,1.1096809E-1,-5.1701207E-2,-5.1626742E-2,2.2674417E-2,9.0724534E-1,-4.816117E-1,7.1802326E-2,-5.1195163E-2],"categories":[],"categories_nodes":[],"categories_segments":[],"categories_sizes":[],"default_left":[0,0,0,0,0,0,0,0,0,0,0,0,0],"id":17,"left_children":[1,3,5,-1,7,9,-1,-1,-1,-1,11,-1,-1],"loss_changes":[1.2910986E3,5.4562793E3,2.4923248E1,0E0,8.50132E-1,3.7064526E2,0E0,0E0,0E0,0E0,2.7568665E0,0E0,0E0],"parents":[2147483647,0,0,1,1,2,2,4,4,5,5,10,10],"right_children":[2,4,6,-1,8,10,-1,-1,-1,-1,12,-1,-1],"split_conditions":[-7.2857565E-1,1.7739251E-1,-6.8659455E-1,1.2655553E0,-9.5204395E-1,1.5578504E-1,-5.1701207E-2,-5.1626742E-2,2.2674417E-2,9.0724534E-1,2.2126089E-1,7.1802326E-2,-5.1195163E-2],"split_indices":[34,18,34,0,37,21,0,0,0,0,21,0,0],"split_type":[0,0,0,0,0,0,0,0,0,0,0,0,0],"sum_hessian":[1.0893491E3,1.789941E2,9.1035504E2,3.964497E1,1.3934912E2,6.797337E1,8.4238165E2,1.3831361E2,1.035503E0,3.3284025E0,6.464497E1,1.035503E0,6.360947E1],"tree_param":{"num_deleted":"0","num_feature":"63","num_nodes":"13","size_leaf_vector":"1"}},{"base_weights":[-4.233271E-4,-3.8686812E-1,5.3581185E0,-5.054819E-1,8.772521E-1,-5.0747972E-2,1.2604607E0,-5.194048E-2,-2.8964615E-1,9.942905E0,-3.4715185E-1,5.1395345E-1,-4.7629312E-1,1.1565459E0,-3.0381305E-2,-5.1324338E-2,5.4692E-1,2.628676E-1,-5.1062014E-2,7.1802326E-2,-2.8184284E-2],"categories":[],"categories_nodes":[],"categories_segments":[],"categories_sizes":[],"default_left":[0,0,0,0,0,0,0,0,0,0,0,0,0,0,0,0,0,0,0,0,0],"id":18,"left_children":[1,3,5,7,9,-1,-1,-1,11,13,15,-1,17,-1,-1,-1,-1,19,-1,-1,-1],"loss_changes":[2.2599465E3,1.5307516E2,3.1267407E3,2.6480103E0,9.7677246E2,0E0,0E0,0E0,6.19232E1,1.7754407E2,7.83702E1,0E0,1.5971622E0,0E0,0E0,0E0,0E0,1.0004339E0,0E0,0E0,0E0],"parents":[2147483647,0,0,1,1,2,2,3,3,4,4,8,8,9,9,10,10,12,12,17,17],"right_children":[2,4,6,8,10,-1,-1,-1,12,14,16,-1,18,-1,-1,-1,-1,20,-1,-1,-1],"split_conditions":[-1.7044838E-1,-1.3168651E-1,-1.3622428E-1,-1.5228625E-1,2.871287E-1,-5.0747972E-2,1.2604607E0,-5.194048E-2,-1.5532027E-1,4.749559E-2,-2.077401E-1,5.1395345E-1,2.4844131E-1,1.1565459E0,-3.0381305E-2,-5.1324338E-2,5.4692E-1,9.8298025E-1,-5.1062014E-2,7.1802326E-2,-2.8184284E-2],"split_indices":[38,50,22,50,49,0,0,0,12,12,35,0,49,0,0,0,0,1,0,0,0],"split_type":[0,0,0,0,0,0,0,0,0,0,0,0,0,0,0,0,0,0,0,0,0],"sum_hessian":[1.0893491E3,1.01693787E3,7.241125E1,9.302515E2,8.668639E1,4.0532547E1,3.1878698E1,8.725592E2,5.769231E1,9.467456E0,7.721893E1,1.035503E0,5.6656807E1,8.06213E0,1.4053255E0,7.596154E1,1.2573965E0,2.218935E0,5.443787E1,1.035503E0,1.183432E0],"tree_param":{"num_deleted":"0","num_feature":"63","num_nodes":"21","size_leaf_vector":"1"}},{"base_weights":[-2.3351762E-2,-5.0657916E-1,2.8214438E0,-5.194349E-2,3.875187E-1,1.1483789E1,-4.5513934E-1,-4.792488E-2,5.630814E-1,-4.143115E-2,1.2671795E0,2.1097851E-1,-5.067204E-1,1.3499459E-3,-5.153824E-2],"categories":[],"categories_nodes":[],"categories_segments":[],"categories_sizes":[],"default_left":[0,0,0,0,0,0,0,0,0,0,0,0,0,0,0],"id":19,"left_children":[1,3,5,-1,7,9,11,-1,-1,-1,-1,-1,13,-1,-1],"loss_changes":[1.5003138E3,1.0923981E1,4.503076E3,0E0,6.539685E1,6.20542E2,1.640823E1,0E0,0E0,0E0,0E0,0E0,5.227375E-1,0E0,0E0],"parents":[2147483647,0,0,1,1,2,2,4,4,5,5,6,6,12,12],"right_children":[2,4,6,-1,8,10,12,-1,-1,-1,-1,-1,14,-1,-1],"split_conditions":[7.1660835E-1,7.0167613E-1,-1.04403734E-1,-5.194349E-2,3.5843754E-1,9.653281E-1,-1.0145439E-1,-4.792488E-2,5.630814E-1,-4.143115E-2,1.2671795E0,2.1097851E-1,1.7825949E-1,1.3499459E-3,-5.153824E-2],"split_indices":[9,9,5,0,49,1,5,0,0,0,0,0,24,0,0],"split_type":[0,0,0,0,0,0,0,0,0,0,0,0,0,0,0],"sum_hessian":[1.0893491E3,9.318787E2,1.5747041E2,9.190829E2,1.2795858E1,4.2529587E1,1.14940834E2,1.1760355E1,1.035503E0,3.9201183E0,3.8609467E1,1.47929E0,1.1346154E2,1.8491125E0,1.1161243E2],"tree_param":{"num_deleted":"0","num_feature":"63","num_nodes":"15","size_leaf_vector":"1"}},{"base_weights":[2.4339383E-2,9.605781E0,-3.7443033E-1,1.2584475E0,-4.7234274E-2,2.1969216E0,-4.9650523E-1,-4.464964E-1,8.343204E0,2.6041114E-1,-5.133444E-1,7.1802326E-2,-5.043602E-2,-4.1269843E-2,1.1577042E0,-3.0819356E-1,5.8892006E-1,-2.7989945E-1,-5.1737994E-2,1.0921409E-1,-4.4459122E-1,1.7005813E-1,-4.9077E-2,2.2674417E-2,-4.928052E-2],"categories":[],"categories_nodes":[],"categories_segments":[],"categories_sizes":[],"default_left":[0,0,0,0,0,0,0,0,0,0,0,0,0,0,0,0,0,0,0,0,0,0,0,0,0],"id":20,"left_children":[1,3,5,-1,-1,7,9,11,13,15,17,-1,-1,-1,-1,19,-1,21,-1,-1,23,-1,-1,-1,-1],"loss_changes":[4.1695903E3,1.3149067E3,3.299756E2,0E0,0E0,7.782548E2,1.2893204E1,2.6723218E0,4.1216443E2,7.366654E1,7.780762E-1,0E0,0E0,0E0,0E0,4.5615916E0,0E0,8.696572E0,0E0,0E0,7.641709E-1,0E0,0E0,0E0,0E0],"parents":[2147483647,0,0,1,1,2,2,5,5,6,6,7,7,8,8,9,9,10,10,15,15,17,17,20,20],"right_children":[2,4,6,-1,-1,8,10,12,14,16,18,-1,-1,-1,-1,20,-1,22,-1,-1,24,-1,-1,-1,-1],"split_conditions":[-1.0873972E0,2.7770847E-1,-1.0262656E0,1.2584475E0,-4.7234274E-2,-1.6136493E-1,-7.6686877E-1,2.086985E-2,-1.08420365E-1,-1.4308302E-1,-9.9656475E-1,7.1802326E-2,-5.043602E-2,-4.1269843E-2,1.1577042E0,-2.7254373E-1,5.8892006E-1,2.1717006E-1,-5.1737994E-2,1.0921409E-1,-2.8616626E-2,1.7005813E-1,-4.9077E-2,2.2674417E-2,-4.928052E-2],"split_indices":[37,18,37,0,0,32,34,17,13,14,37,0,0,0,0,62,0,15,0,0,16,0,0,0,0],"split_type":[0,0,0,0,0,0,0,0,0,0,0,0,0,0,0,0,0,0,0,0,0,0,0,0,0],"sum_hessian":[1.0893491E3,4.260355E1,1.0467456E3,3.269231E1,9.9112425E0,4.66716E1,1.000074E3,3.3284023E1,1.3387574E1,2.1449705E1,9.7862427E2,1.035503E0,3.224852E1,3.846154E0,9.54142E0,2.0340237E1,1.1094675E0,1.7825445E1,9.607988E2,1.183432E0,1.9156805E1,1.035503E0,1.6789942E1,1.035503E0,1.8121302E1],"tree_param":{"num_deleted":"0","num_feature":"63","num_nodes":"25","size_leaf_vector":"1"}},{"base_weights":[1.24165965E-2,2.625702E0,-4.737905E-1,-5.075942E-1,1.030212E1,5.0125426E-1,-5.0817066E-1,-5.1568825E-2,-2.1665503E-9,1.2468401E1,-4.639898E-2,9.13884E-1,-5.0235875E-2,-1.6926418E-1,-5.193956E-2,2.1918605E-1,1.2677811E0,4.648256E-1,-5.0204333E-2],"categories":[],"categories_nodes":[],"categories_segments":[],"categories_sizes":[],"default_left":[0,0,0,0,0,0,0,0,0,0,0,0,0,0,0,0,0,0,0],"id":21,"left_children":[1,3,5,7,9,11,13,-1,-1,15,-1,-1,-1,17,-1,-1,-1,-1,-1],"loss_changes":[1.3866394E3,4.1228306E3,3.1100388E1,5.0338745E-1,1.1641782E3,2.8063303E2,3.295227E0,0E0,0E0,6.127246E1,0E0,0E0,0E0,5.0419247E1,0E0,0E0,0E0,0E0,0E0],"parents":[2147483647,0,0,1,1,2,2,3,3,4,4,5,5,6,6,9,9,13,13],"right_children":[2,4,6,8,10,12,14,-1,-1,16,-1,-1,-1,18,-1,-1,-1,-1,-1],"split_conditions":[-9.644459E-1,-2.3944326E-2,-7.154104E-1,-1.4259294E-1,-6.1664537E-2,-8.3993055E-2,-6.977533E-1,-5.1568825E-2,-2.1665503E-9,1.7956254E-1,-4.639898E-2,9.13884E-1,-5.0235875E-2,-1.2844452E-2,-5.193956E-2,2.1918605E-1,1.2677811E0,4.648256E-1,-5.0204333E-2],"split_indices":[37,13,34,23,36,30,34,0,0,3,0,0,0,30,0,0,0,0,0],"split_type":[0,0,0,0,0,0,0,0,0,0,0,0,0,0,0,0,0,0,0],"sum_hessian":[1.0893491E3,1.701923E2,9.191568E2,1.21523674E2,4.866864E1,3.0843197E1,8.8831366E2,1.1960059E2,1.923077E0,4.0384617E1,8.284024E0,2.366864E0,2.8476332E1,2.8994083E1,8.593195E2,1.035503E0,3.9349113E1,1.035503E0,2.795858E1],"tree_param":{"num_deleted":"0","num_feature":"63","num_nodes":"19","size_leaf_vector":"1"}},{"base_weights":[-4.233271E-4,-4.4992897E-1,8.248177E0,2.1243854E0,-4.998049E-1,-4.93818E-2,1.2653688E0,1.031746E0,-4.8753005E-2,1.2337339E0,-5.1156396E-1,-4.348037E-2,5.630814E-1,-1.0853759E-1,-5.1547986E-1,1.7005813E-1,-4.6773713E-2,-4.1269842E-1,-5.1945772E-2,1.7005813E-1,-5.073445E-2],"categories":[],"categories_nodes":[],"categories_segments":[],"categories_sizes":[],"default_left":[0,0,0,0,0,0,0,0,0,0,0,0,0,0,0,0,0,0,0,0,0],"id":22,"left_children":[1,3,5,7,9,-1,-1,-1,-1,11,13,-1,-1,15,17,-1,-1,19,-1,-1,-1],"loss_changes":[4.0464993E3,1.3394556E2,2.1783564E3,4.3004672E2,2.1343842E1,0E0,0E0,0E0,0E0,5.482534E1,1.5379944E0,0E0,0E0,7.933994E0,1.9442749E-1,0E0,0E0,9.288206E0,0E0,0E0,0E0],"parents":[2147483647,0,0,1,1,2,2,3,3,4,4,9,9,10,10,13,13,14,14,17,17],"right_children":[2,4,6,8,10,-1,-1,-1,-1,12,14,-1,-1,16,18,-1,-1,20,-1,-1,-1],"split_conditions":[-5.9039995E-2,-3.9884558E-1,7.2620176E-2,-7.0494795E-1,-2.3581961E-1,-4.93818E-2,1.2653688E0,1.031746E0,-4.8753005E-2,5.3476596E-1,-3.787815E-1,-4.348037E-2,5.630814E-1,1.4486822E-1,-8.3459914E-1,1.7005813E-1,-4.6773713E-2,3.7415612E-1,-5.1945772E-2,1.7005813E-1,-5.073445E-2],"split_indices":[32,50,2,25,12,0,0,0,0,24,50,0,0,9,49,0,0,6,0,0,0],"split_type":[0,0,0,0,0,0,0,0,0,0,0,0,0,0,0,0,0,0,0,0,0],"sum_hessian":[1.0893491E3,1.0339497E3,5.539941E1,1.8860947E1,1.0150888E3,1.8860947E1,3.6538464E1,3.846154E0,1.5014793E1,6.1390533E0,1.0089497E3,5.1035504E0,1.035503E0,9.985208E0,9.9896454E2,1.035503E0,8.949704E0,4.112426E1,9.578403E2,1.035503E0,4.0088757E1],"tree_param":{"num_deleted":"0","num_feature":"63","num_nodes":"21","size_leaf_vector":"1"}},{"base_weights":[1.6085146E-2,-3.7857065E-1,2.0747244E0,-5.0713223E-1,1.610519E-1,1.2568988E0,-5.1633168E-2,-5.178326E-1,-3.044975E-1,4.796902E0,-3.7874854E-1,-5.192518E-2,-3.1350484E-1,-5.063094E-2,2.8169176E-1,-1.4099812E-2,1.0331273E1,-5.163583E-2,7.5649834E-1,-4.3779235E-2,2.2674417E-2,-4.673457E-2,2.1918605E-1,1.1285603E0,1.7005813E-1,7.384216E-1,-4.870738E-2],"categories":[],"categories_nodes":[],"categories_segments":[],"categories_sizes":[],"default_left":[0,0,0,0,0,0,0,0,0,0,0,0,0,0,0,0,0,0,0,0,0,0,0,0,0,0,0],"id":23,"left_children":[1,3,5,7,9,-1,-1,11,13,15,17,-1,19,-1,-1,21,23,-1,25,-1,-1,-1,-1,-1,-1,-1,-1],"loss_changes":[8.866439E2,6.3614563E1,4.780078E3,1.4464417E0,4.4465137E2,0E0,0E0,4.058838E-2,2.6331175E1,4.9351205E2,2.5297255E1,0E0,5.935264E-1,0E0,0E0,1.1933881E1,5.179309E1,0E0,1.4900291E2,0E0,0E0,0E0,0E0,0E0,0E0,0E0,0E0],"parents":[2147483647,0,0,1,1,2,2,3,3,4,4,7,7,8,8,9,9,10,10,12,12,15,15,16,16,18,18],"right_children":[2,4,6,8,10,-1,-1,12,14,16,18,-1,20,-1,-1,22,24,-1,26,-1,-1,-1,-1,-1,-1,-1,-1],"split_conditions":[-1.9156793E-1,1.404285E-1,-1.9250162E-1,1.2484625E-1,-2.42391E-1,1.2568988E0,-5.1633168E-2,-1.9310215E-1,3.5522717E-1,2.2713672E-2,2.0701674E-1,-5.192518E-2,9.897392E-1,-5.063094E-2,2.8169176E-1,-2.4727544E-1,-8.986068E-2,-5.163583E-2,-5.844702E-1,-4.3779235E-2,2.2674417E-2,-4.673457E-2,2.1918605E-1,1.1285603E0,1.7005813E-1,7.384216E-1,-4.870738E-2],"split_indices":[26,33,14,33,14,0,0,26,55,17,15,0,1,0,0,26,8,0,22,0,0,0,0,0,0,0,0],"split_type":[0,0,0,0,0,0,0,0,0,0,0,0,0,0,0,0,0,0,0,0,0,0,0,0,0,0,0],"sum_hessian":[1.0893491E3,9.147929E2,1.7455621E2,7.3883136E2,1.7596155E2,3.3801777E1,1.4075444E2,7.002959E2,3.8535503E1,1.7529587E1,1.5843196E2,6.9393494E2,6.360947E0,3.698225E1,1.5532545E0,9.9112425E0,7.6183434E0,1.4178995E2,1.6642012E1,5.3254437E0,1.035503E0,8.87574E0,1.035503E0,6.5828404E0,1.035503E0,1.8491125E0,1.47929E1],"tree_param":{"num_deleted":"0","num_feature":"63","num_nodes":"27","size_leaf_vector":"1"}},{"base_weights":[1.4109478E-3,1.1019679E1,-4.1113672E-1,-4.304636E-2,1.2624058E0,3.927083E0,-5.039737E-1,-4.8511315E-2,1.1423959E0,1.0074695E0,-5.17535E-1,-4.5860987E-2,6.613372E-1,-3.6868997E-2,-5.1948924E-2,-3.956122E-2,7.1802326E-2],"categories":[],"categories_nodes":[],"categories_segments":[],"categories_sizes":[],"default_left":[0,0,0,0,0,0,0,0,0,0,0,0,0,0,0,0,0],"id":24,"left_children":[1,3,5,-1,-1,7,9,-1,-1,11,13,-1,-1,15,-1,-1,-1],"loss_changes":[4.9607793E3,7.2899756E2,4.2565393E2,0E0,0E0,7.3833984E2,2.1649933E1,0E0,0E0,8.1159225E1,9.411316E-1,0E0,0E0,1.6966101E0,0E0,0E0,0E0],"parents":[2147483647,0,0,1,1,2,2,5,5,6,6,9,9,10,10,13,13],"right_children":[2,4,6,-1,-1,8,10,-1,-1,12,14,-1,-1,16,-1,-1,-1],"split_conditions":[-8.09489E-1,4.9963552E-1,-7.562206E-1,-4.304636E-2,1.2624058E0,5.750709E-1,-7.290999E-1,-4.8511315E-2,1.1423959E0,4.8130625E-1,-7.153866E-1,-4.5860987E-2,6.613372E-1,9.312764E-1,-5.1948924E-2,-3.956122E-2,7.1802326E-2],"split_indices":[57,9,57,0,0,9,57,0,0,9,57,0,0,1,0,0,0],"split_type":[0,0,0,0,0,0,0,0,0,0,0,0,0,0,0,0,0],"sum_hessian":[1.0893491E3,3.8387573E1,1.0509615E3,4.8076925E0,3.3579884E1,2.1153847E1,1.0298077E3,1.3905326E1,7.248521E0,8.505918E0,1.0213018E3,7.470414E0,1.035503E0,4.215976E0,1.0170858E3,3.1804736E0,1.035503E0],"tree_param":{"num_deleted":"0","num_feature":"63","num_nodes":"17","size_leaf_vector":"1"}},{"base_weights":[-1.3404645E-3,1.2290252E1,-5.1377666E-1,-2.9695434E-2,1.2693006E0,7.4798614E-1,-5.1950168E-2,-3.9337177E-2,2.6831394E-1],"categories":[],"categories_nodes":[],"categories_segments":[],"categories_sizes":[],"default_left":[0,0,0,0,0,0,0,0,0],"id":25,"left_children":[1,3,5,-1,-1,7,-1,-1,-1],"loss_changes":[6.8740493E3,2.2519482E2,7.9565735E0,0E0,0E0,1.2412646E1,0E0,0E0,0E0],"parents":[2147483647,0,0,1,1,2,2,5,5],"right_children":[2,4,6,-1,-1,8,-1,-1,-1],"split_conditions":[-1.3609797E-1,4.792414E-1,-6.861232E-2,-2.9695434E-2,1.2693006E0,-1.9408275E-3,-5.1950168E-2,-3.9337177E-2,2.6831394E-1],"split_indices":[3,21,3,0,0,17,0,0,0],"split_type":[0,0,0,0,0,0,0,0,0],"sum_hessian":[1.0893491E3,4.2677517E1,1.0466716E3,1.3313609E0,4.1346153E1,4.142012E0,1.0425297E3,3.106509E0,1.035503E0],"tree_param":{"num_deleted":"0","num_feature":"63","num_nodes":"9","size_leaf_vector":"1"}},{"base_weights":[1.6401418E-2,1.8372892E0,-4.2319438E-1,3.8705492E0,-5.0273913E-1,-5.173993E-2,8.313365E-2,7.124889E-2,3.8926712E-1,2.3114888E-2,-5.1279586E-2,3.5171788E0,-4.8889288E-1,-4.0948384E-2,4.4665644E-1,1.1813501E-1,-5.138537E-2],"categories":[],"categories_nodes":[],"categories_segments":[],"categories_sizes":[],"default_left":[0,0,0,0,0,0,0,0,0,0,0,0,0,0,0,0,0],"id":26,"left_children":[1,3,5,7,9,-1,11,-1,-1,-1,-1,13,15,-1,-1,-1,-1],"loss_changes":[8.6741565E2,1.0046051E3,4.1681305E1,5.1120605E0,8.481827E-1,0E0,2.7240826E2,0E0,0E0,0E0,0E0,7.563585E1,5.568264E0,0E0,0E0,0E0,0E0],"parents":[2147483647,0,0,1,1,2,2,3,3,4,4,6,6,11,11,12,12],"right_children":[2,4,6,8,10,-1,12,-1,-1,-1,-1,14,16,-1,-1,-1,-1],"split_conditions":[-3.286999E-1,-3.4100693E-1,2.1166344E-1,2.2553933E-1,-1.674136E-1,-5.173993E-2,7.043177E-2,7.124889E-2,3.8926712E-1,2.3114888E-2,-5.1279586E-2,4.3456393E-1,-2.9958946E-1,-4.0948384E-2,4.4665644E-1,1.1813501E-1,-5.138537E-2],"split_indices":[13,26,25,46,5,0,2,0,0,0,0,61,13,0,0,0,0],"split_type":[0,0,0,0,0,0,0,0,0,0,0,0,0,0,0,0,0],"sum_hessian":[1.0816824E3,2.0973627E2,8.7194617E2,1.1187423E2,9.786203E1,7.3514655E2,1.367996E2,1.0092117E0,1.1086501E2,1.0257199E0,9.683631E1,1.879843E1,1.1800118E2,3.7708523E0,1.5027578E1,1.0553367E0,1.1694585E2],"tree_param":{"num_deleted":"0","num_feature":"63","num_nodes":"17","size_leaf_vector":"1"}},{"base_weights":[-1.7964007E-2,-5.098981E-1,2.6505241E0,-5.164399E-1,1.9395529E-1,3.810664E-1,-5.0688274E-2,-5.1753975E-2,-2.1136609E-1,-4.5507073E-2,2.73666E-1,2.3920733E-2,-3.867921E-2],"categories":[],"categories_nodes":[],"categories_segments":[],"categories_sizes":[],"default_left":[0,0,0,0,0,0,0,0,0,0,0,0,0],"id":27,"left_children":[1,3,5,7,9,-1,-1,-1,11,-1,-1,-1,-1],"loss_changes":[1.4202252E3,4.306122E0,6.187969E2,1.9438171E-1,1.63268E1,0E0,0E0,0E0,4.8318392E-1,0E0,0E0,0E0,0E0],"parents":[2147483647,0,0,1,1,2,2,3,3,4,4,8,8],"right_children":[2,4,6,8,10,-1,-1,-1,12,-1,-1,-1,-1],"split_conditions":[-7.596152E-2,-7.917356E-2,3.6165896E-1,-8.078045E-2,-2.6642054E-1,3.810664E-1,-5.0688274E-2,-5.1753975E-2,2.0128312E-2,-4.5507073E-2,2.73666E-1,2.3920733E-2,-3.867921E-2],"split_indices":[32,32,21,32,50,0,0,0,5,0,0,0,0],"split_type":[0,0,0,0,0,0,0,0,0,0,0,0,0],"sum_hessian":[1.079865E3,9.124621E2,1.674029E2,9.043234E2,8.1387E0,1.2226986E2,4.5133038E1,9.00381E2,3.942424E0,7.1378026E0,1.0008973E0,1.0029119E0,2.9395123E0],"tree_param":{"num_deleted":"0","num_feature":"63","num_nodes":"13","size_leaf_vector":"1"}},{"base_weights":[-1.1942624E-2,-4.8379967E-1,3.2511373E0,-5.1208353E-1,3.551654E-1,3.6689847E0,-4.8311368E-2,-5.164257E-1,-1.7630117E-1,-4.993912E-2,4.5664692E-1,-4.4065304E-2,3.8722566E-1,-5.1753152E-2,-3.361603E-1,1.7318909E-1,-4.7560733E-2,2.3539914E-2,-4.4739444E-2],"categories":[],"categories_nodes":[],"categories_segments":[],"categories_sizes":[],"default_left":[0,0,0,0,0,0,0,0,0,0,0,0,0,0,0,0,0,0,0],"id":28,"left_children":[1,3,5,7,9,11,-1,13,15,-1,-1,-1,-1,-1,17,-1,-1,-1,-1],"loss_changes":[1.6622136E3,2.256215E1,2.145857E2,1.2398682E0,1.1510225E2,1.0427283E2,0E0,5.5236816E-3,8.346478E0,0E0,0E0,0E0,0E0,0E0,6.3582855E-1,0E0,0E0,0E0,0E0],"parents":[2147483647,0,0,1,1,2,2,3,3,4,4,5,5,7,7,8,8,14,14],"right_children":[2,4,6,8,10,12,-1,14,16,-1,-1,-1,-1,-1,18,-1,-1,-1,-1],"split_conditions":[-5.271896E-2,-2.0642627E-2,-3.1670433E-1,-3.372046E-2,7.6128143E-1,6.2547815E-1,-4.8311368E-2,-3.916106E-2,2.1343471E-1,-4.993912E-2,4.5664692E-1,-4.4065304E-2,3.8722566E-1,-5.1753152E-2,6.018507E-1,1.7318909E-1,-4.7560733E-2,2.3539914E-2,-4.4739444E-2],"split_indices":[14,11,22,11,4,4,0,11,18,0,0,0,0,0,24,0,0,0,0],"split_type":[0,0,0,0,0,0,0,0,0,0,0,0,0,0,0,0,0,0,0],"sum_hessian":[1.0775431E3,9.421547E2,1.3538837E2,9.118049E2,3.0349861E1,1.2177925E2,1.3609117E1,8.996332E2,1.2171661E1,2.5962894E1,4.386966E0,5.684543E0,1.1609471E2,8.922888E2,7.344418E0,1.0013458E0,1.1170315E1,1.0146332E0,6.329785E0],"tree_param":{"num_deleted":"0","num_feature":"63","num_nodes":"19","size_leaf_vector":"1"}},{"base_weights":[1.6805485E-2,3.109254E0,-4.951062E-1,3.8775377E0,-4.9970392E-2,8.726943E-1,-5.078491E-1,3.917307E-1,-2.7589818E-2,-4.4392284E-2,3.6783123E-1,-8.545086E-2,-5.164449E-1,3.169883E-1,-4.8975274E-2,1.5608956E-2,-5.175365E-2],"categories":[],"categories_nodes":[],"categories_segments":[],"categories_sizes":[],"default_left":[0,0,0,0,0,0,0,0,0,0,0,0,0,0,0,0,0],"id":29,"left_children":[1,3,5,7,-1,9,11,-1,-1,-1,-1,13,15,-1,-1,-1,-1],"loss_changes":[1.7167614E3,4.2898975E2,1.666095E1,2.2075195E1,0E0,3.4717087E1,3.3054047E0,0E0,0E0,0E0,0E0,2.7344742E1,7.4438477E-1,0E0,0E0,0E0,0E0],"parents":[2147483647,0,0,1,1,2,2,3,3,5,5,6,6,11,11,12,12],"right_children":[2,4,6,8,-1,10,12,-1,-1,-1,-1,14,16,-1,-1,-1,-1],"split_conditions":[-3.7657872E-1,-5.0276756E-1,-5.7471925E-1,3.344366E-2,-4.9970392E-2,-8.112275E-2,-5.4346687E-1,3.917307E-1,-2.7589818E-2,-4.4392284E-2,3.6783123E-1,3.19235E-1,-3.0894133E-1,3.169883E-1,-4.8975274E-2,1.5608956E-2,-5.175365E-2],"split_indices":[62,61,58,16,0,5,58,0,0,0,0,6,53,0,0,0,0],"split_type":[0,0,0,0,0,0,0,0,0,0,0,0,0,0,0,0,0],"sum_hessian":[1.082485E3,1.5302005E2,9.294649E2,1.26100945E2,2.69191E1,7.956382E0,9.2150854E2,1.2496129E2,1.1396551E0,5.9880776E0,1.9683044E0,1.8596952E1,9.0291156E2,1.2988185E0,1.7298134E1,1.2330669E0,9.0167847E2],"tree_param":{"num_deleted":"0","num_feature":"63","num_nodes":"17","size_leaf_vector":"1"}},{"base_weights":[4.200918E-3,1.7615728E0,-5.0802594E-1,3.840761E-1,-5.1366836E-2,3.5148168E-1,-5.1749535E-2,3.258518E-1,-4.574108E-2],"categories":[],"categories_nodes":[],"categories_segments":[],"categories_sizes":[],"default_left":[0,0,0,0,0,0,0,0,0],"id":30,"left_children":[1,3,5,-1,-1,7,-1,-1,-1],"loss_changes":[9.7691504E2,1.1606548E3,7.0213165E0,0E0,0E0,2.4423777E1,0E0,0E0,0E0],"parents":[2147483647,0,0,1,1,2,2,5,5],"right_children":[2,4,6,-1,-1,8,-1,-1,-1],"split_conditions":[-3.8056138E-1,2.4270506E-1,-3.665765E-1,3.840761E-1,-5.1366836E-2,2.4486327E-1,-5.1749535E-2,3.258518E-1,-4.574108E-2],"split_indices":[43,9,43,0,0,9,0,0,0],"split_type":[0,0,0,0,0,0,0,0,0],"sum_hessian":[1.0832583E3,2.4393062E2,8.3932764E2,1.2709714E2,1.1683347E2,8.7527075E0,8.3057495E2,1.2460878E0,7.5066195E0],"tree_param":{"num_deleted":"0","num_feature":"63","num_nodes":"9","size_leaf_vector":"1"}},{"base_weights":[-1.4210566E-2,3.756275E0,-5.1757187E-2,-3.164683E-2,3.8094467E-1],"categories":[],"categories_nodes":[],"categories_segments":[],"categories_sizes":[],"default_left":[0,0,0,0,0],"id":31,"left_children":[1,3,-1,-1,-1],"loss_changes":[2.056243E3,2.8838501E1,0E0,0E0,0E0],"parents":[2147483647,0,0,1,1],"right_children":[2,4,-1,-1,-1],"split_conditions":[-6.106818E-1,4.409363E-2,-5.1757187E-2,-3.164683E-2,3.8094467E-1],"split_indices":[46,16,0,0,0],"split_type":[0,0,0,0,0],"sum_hessian":[1.0813969E3,1.2660266E2,9.547942E2,1.5677413E0,1.2503492E2],"tree_param":{"num_deleted":"0","num_feature":"63","num_nodes":"5","size_leaf_vector":"1"}},{"base_weights":[-2.7179964E-2,3.6953857E0,-5.0921965E-1,-3.9662134E-2,3.8093555E-1,2.6434112E-1,-5.1652473E-1,-5.175683E-2,-3.5265595E-2,-2.763061E-2,2.3979604E-2],"categories":[],"categories_nodes":[],"categories_segments":[],"categories_sizes":[],"default_left":[0,0,0,0,0,0,0,0,0,0,0],"id":32,"left_children":[1,3,5,-1,-1,-1,7,-1,9,-1,-1],"loss_changes":[1.9380876E3,5.9258667E1,2.3386688E1,0E0,0E0,0E0,4.6125793E-1,0E0,2.7437848E-1,0E0,0E0],"parents":[2147483647,0,0,1,1,2,2,6,6,8,8],"right_children":[2,4,6,-1,-1,-1,8,-1,10,-1,-1],"split_conditions":[-2.5352374E-1,4.274832E-2,-5.562055E-1,-3.9662134E-2,3.8093555E-1,2.6434112E-1,4.7102708E-1,-5.175683E-2,-1.653103E-1,-2.763061E-2,2.3979604E-2],"split_indices":[10,2,19,0,0,0,52,0,48,0,0],"split_type":[0,0,0,0,0,0,0,0,0,0,0],"sum_hessian":[1.0780123E3,1.2282517E2,9.551872E2,3.2610087E0,1.1956416E2,1.3739641E0,9.5381323E2,9.516742E2,2.1390378E0,1.1376097E0,1.0014282E0],"tree_param":{"num_deleted":"0","num_feature":"63","num_nodes":"11","size_leaf_vector":"1"}},{"base_weights":[-1.9704306E-2,3.402381E0,-5.0810474E-1,3.8677514E-1,-4.842907E-2,1.0813899E0,-5.1756173E-2,-3.9784867E-2,3.1118363E-1],"categories":[],"categories_nodes":[],"categories_segments":[],"categories_sizes":[],"default_left":[0,0,0,0,0,0,0,0,0],"id":33,"left_children":[1,3,5,-1,-1,7,-1,-1,-1],"loss_changes":[1.8051626E3,2.4586414E2,1.4766785E1,0E0,0E0,1.899983E1,0E0,0E0,0E0],"parents":[2147483647,0,0,1,1,2,2,5,5],"right_children":[2,4,6,-1,-1,8,-1,-1,-1],"split_conditions":[-6.410712E-1,2.2259976E-1,-6.2435615E-1,3.8677514E-1,-4.842907E-2,7.0623964E-1,-5.1756173E-2,-3.9784867E-2,3.1118363E-1],"split_indices":[36,10,36,0,0,1,0,0,0],"split_type":[0,0,0,0,0,0,0,0,0],"sum_hessian":[1.0780295E3,1.3389542E2,9.4413416E2,1.1958213E2,1.431329E1,4.913669E0,9.3922046E2,3.3078578E0,1.6058111E0],"tree_param":{"num_deleted":"0","num_feature":"63","num_nodes":"9","size_leaf_vector":"1"}},{"base_weights":[7.5006424E-3,3.378569E0,-4.7772983E-1,3.8378695E-1,-4.846367E-2,7.5115025E-1,-5.0891787E-1,4.0761873E-1,-4.8976175E-2,-1.3335918E-1,-5.15344E-1,2.7367097E-1,-4.8588555E-2,-3.8755167E-2,-5.1643666E-2,-2.7910799E-2,2.4023887E-2],"categories":[],"categories_nodes":[],"categories_segments":[],"categories_sizes":[],"default_left":[0,0,0,0,0,0,0,0,0,0,0,0,0,0,0,0,0],"id":34,"left_children":[1,3,5,-1,-1,7,9,-1,-1,11,13,-1,-1,15,-1,-1,-1],"loss_changes":[1.7738591E3,2.4397668E2,3.671553E1,0E0,0E0,1.0047687E2,2.163971E0,0E0,0E0,1.8441368E1,4.5344543E-1,0E0,0E0,2.7901086E-1,0E0,0E0,0E0],"parents":[2147483647,0,0,1,1,2,2,5,5,6,6,9,9,10,10,13,13],"right_children":[2,4,6,-1,-1,8,10,-1,-1,12,14,-1,-1,16,-1,-1,-1],"split_conditions":[-7.27636E-1,-7.1122654E-2,-6.8106616E-1,3.8378695E-1,-4.846367E-2,5.040699E-1,-6.503041E-1,4.0761873E-1,-4.8976175E-2,5.5516756E-1,-5.3528473E-2,2.7367097E-1,-4.8588555E-2,-4.7902843E-1,-5.1643666E-2,-2.7910799E-2,2.4023887E-2],"split_indices":[61,5,61,0,0,9,61,0,0,9,2,0,0,25,0,0,0],"split_type":[0,0,0,0,0,0,0,0,0,0,0,0,0,0,0,0,0],"sum_hessian":[1.0824482E3,1.3545204E2,9.4699615E2,1.2106504E2,1.4386996E1,2.286782E1,9.2412836E2,5.5939474E0,1.7273874E1,1.5912497E1,9.082158E2,1.0008678E0,1.4911629E1,2.1608667E0,9.06055E2,1.160602E0,1.0002649E0],"tree_param":{"num_deleted":"0","num_feature":"63","num_nodes":"17","size_leaf_vector":"1"}},{"base_weights":[-2.2608887E-2,2.7291596E0,-5.175465E-2,3.808072E-1,-5.058681E-2],"categories":[],"categories_nodes":[],"categories_segments":[],"categories_sizes":[],"default_left":[0,0,0,0,0],"id":35,"left_children":[1,3,-1,-1,-1],"loss_changes":[1.473431E3,5.775552E2,0E0,0E0,0E0],"parents":[2147483647,0,0,1,1],"right_children":[2,4,-1,-1,-1],"split_conditions":[-7.489587E-1,-5.2567016E-2,-5.175465E-2,3.808072E-1,-5.058681E-2],"split_indices":[60,16,0,0,0],"split_type":[0,0,0,0,0],"sum_hessian":[1.079814E3,1.6392192E2,9.15892E2,1.22792366E2,4.112955E1],"tree_param":{"num_deleted":"0","num_feature":"63","num_nodes":"5","size_leaf_vector":"1"}},{"base_weights":[2.3718815E-2,2.4505181E0,-4.9099448E-1,-5.0766118E-2,3.448993E0,3.9783075E-1,-5.1751263E-2,3.8795145E0,-3.5542613E-1,2.5876007E0,-4.9207006E-2,3.9211068E-1,-2.8816953E-2,-4.8244506E-2,7.313474E-2,-3.5394136E-2,3.7680075E-1],"categories":[],"categories_nodes":[],"categories_segments":[],"categories_sizes":[],"default_left":[0,0,0,0,0,0,0,0,0,0,0,0,0,0,0,0,0],"id":36,"left_children":[1,3,5,-1,7,9,-1,11,13,15,-1,-1,-1,-1,-1,-1,-1],"loss_changes":[1.3575232E3,5.6344604E2,2.1340225E1,0E0,2.3446167E2,5.2995777E1,0E0,2.3304932E1,2.4763093E0,2.8519192E1,0E0,0E0,0E0,0E0,0E0,0E0,0E0],"parents":[2147483647,0,0,1,1,2,2,4,4,5,5,7,7,8,8,9,9],"right_children":[2,4,6,-1,8,10,-1,12,14,16,-1,-1,-1,-1,-1,-1,-1],"split_conditions":[-1.005714E0,2.7770847E-1,-1.9433792E-1,-5.0766118E-2,5.162995E-3,-9.7580665E-1,-5.1751263E-2,3.7546694E-1,-2.8784635E-2,9.825066E-1,-4.9207006E-2,3.9211068E-1,-2.8816953E-2,-4.8244506E-2,7.313474E-2,-3.5394136E-2,3.7680075E-1],"split_indices":[37,18,12,0,13,37,0,6,30,1,0,0,0,0,0,0,0],"split_type":[0,0,0,0,0,0,0,0,0,0,0,0,0,0,0,0,0],"sum_hessian":[1.0848326E3,1.8916867E2,8.95664E2,4.7861393E1,1.4130727E2,2.5542349E1,8.701217E2,1.2692433E2,1.4382943E1,6.82945E0,1.87129E1,1.2572875E2,1.1955755E0,1.3375705E1,1.0072378E0,2.15626E0,4.67319E0],"tree_param":{"num_deleted":"0","num_feature":"63","num_nodes":"17","size_leaf_vector":"1"}},{"base_weights":[-1.3076347E-2,-5.089013E-1,2.839057E0,-5.153638E-1,6.437809E-1,3.8610107E-1,-5.04754E-2,-5.1753905E-2,-1.6375061E-2,-4.0344674E-2,2.5713357E-1,7.345512E-2,-3.8920213E-2],"categories":[],"categories_nodes":[],"categories_segments":[],"categories_sizes":[],"default_left":[0,0,0,0,0,0,0,0,0,0,0,0,0],"id":37,"left_children":[1,3,5,7,9,-1,-1,-1,11,-1,-1,-1,-1],"loss_changes":[1.5293761E3,7.1946716E0,5.4926624E2,9.8654175E-1,1.2303181E1,0E0,0E0,0E0,1.6889446E0,0E0,0E0,0E0,0E0],"parents":[2147483647,0,0,1,1,2,2,3,3,4,4,8,8],"right_children":[2,4,6,8,10,-1,-1,-1,12,-1,-1,-1,-1],"split_conditions":[8.3001876E-1,8.255878E-1,-6.63942E-1,8.2130325E-1,9.7665274E-1,3.8610107E-1,-5.04754E-2,-5.1753905E-2,-3.7551594E-1,-4.0344674E-2,2.5713357E-1,7.345512E-2,-3.8920213E-2],"split_indices":[4,4,22,4,12,0,0,0,19,0,0,0,0],"split_type":[0,0,0,0,0,0,0,0,0,0,0,0,0],"sum_hessian":[1.0794524E3,9.202879E2,1.5916454E2,9.157069E2,4.5810194E0,1.2178827E2,3.7376263E1,9.116954E2,4.0115294E0,3.4806828E0,1.1003364E0,1.009014E0,3.0025156E0],"tree_param":{"num_deleted":"0","num_feature":"63","num_nodes":"13","size_leaf_vector":"1"}},{"base_weights":[9.90183E-3,-4.8789373E-1,3.4573824E0,-5.07929E-1,1.7569277E0,3.802674E0,1.1623088E0,-5.175481E-2,1.5495978E-1,3.3626625E-1,4.2474437E-1,6.130093E-1,3.8554258E0,3.4558961E0,4.0351802E-1,2.6734287E-1,-4.759536E-2,1.7157836E-1,-2.0587917E-1,-2.7003024E-2,1.2200961E-1,3.9847295E0,2.0558555E0,4.0856943E-1,6.9176644E-2,2.4158764E-1,-2.4750046E-1,2.3262084E-2,-3.8421415E-2,7.110741E-2,4.010181E0,2.8293207E0,1.2315004E-1,6.3367724E-2,-4.751393E-2,4.104254E-1,2.7283236E-1,7.063802E-2,3.0791622E-1,7.249639E-2,-3.473342E-2],"categories":[],"categories_nodes":[],"categories_segments":[],"categories_sizes":[],"default_left":[0,0,0,0,0,0,0,0,0,0,0,0,0,0,0,0,0,0,0,0,0,0,0,0,0,0,0,0,0,0,0,0,0,0,0,0,0,0,0,0,0],"id":38,"left_children":[1,3,5,7,9,11,13,-1,15,-1,17,19,21,23,25,-1,-1,-1,27,-1,-1,29,31,-1,-1,-1,33,-1,-1,-1,35,37,39,-1,-1,-1,-1,-1,-1,-1,-1],"loss_changes":[1.8444595E3,4.313263E1,1.0304614E2,6.020706E0,1.6823666E1,1.739624E1,3.197566E1,0E0,2.3668783E1,0E0,5.0818853E0,1.991125E0,1.8645386E1,5.2413483E0,2.095663E1,0E0,0E0,0E0,4.6433526E-1,0E0,0E0,6.0251465E0,1.4297516E1,0E0,0E0,0E0,2.8382678E0,0E0,0E0,0E0,1.524292E0,1.5120888E0,1.3407074E0,0E0,0E0,0E0,0E0,0E0,0E0,0E0,0E0],"parents":[2147483647,0,0,1,1,2,2,3,3,4,4,5,5,6,6,8,8,10,10,11,11,12,12,13,13,14,14,18,18,21,21,22,22,26,26,30,30,31,31,32,32],"right_children":[2,4,6,8,10,12,14,-1,16,-1,18,20,22,24,26,-1,-1,-1,28,-1,-1,30,32,-1,-1,-1,34,-1,-1,-1,36,38,40,-1,-1,-1,-1,-1,-1,-1,-1],"split_conditions":[1.0437509E0,3.8023213E-1,1.051737E-1,6.099545E-1,3.8024083E-2,8.55545E-1,2.8159344E-1,-5.175481E-2,8.144659E-1,3.3626625E-1,-2.229227E-1,-2.046245E-1,-1.839354E-1,-3.6870656E-3,-3.7526774E-1,2.6734287E-1,-4.759536E-2,1.7157836E-1,-4.87592E-1,-2.7003024E-2,1.2200961E-1,-1.4180844E-1,4.9071006E-2,4.0856943E-1,6.9176644E-2,2.4158764E-1,1.0891613E0,2.3262084E-2,-3.8421415E-2,7.110741E-2,8.501321E-1,-1.5842396E-1,1.6099774E0,6.3367724E-2,-4.751393E-2,4.104254E-1,2.7283236E-1,7.063802E-2,3.0791622E-1,7.249639E-2,-3.473342E-2],"split_indices":[61,5,16,22,16,25,18,0,34,0,59,36,50,17,50,0,0,0,60,0,0,17,16,0,0,0,46,0,0,0,31,30,37,0,0,0,0,0,0,0,0],"split_type":[0,0,0,0,0,0,0,0,0,0,0,0,0,0,0,0,0,0,0,0,0,0,0,0,0,0,0,0,0,0,0,0,0,0,0,0,0,0,0,0,0],"sum_hessian":[1.0727888E3,9.381798E2,1.3460907E2,9.306474E2,7.5324006E0,1.1643469E2,1.8174374E1,9.175522E2,1.3095193E1,2.724399E0,4.8080015E0,2.0996437E0,1.1433505E2,3.6343606E0,1.4540013E1,1.9748055E0,1.1120388E1,1.0131221E0,3.7948794E0,1.0816014E0,1.0180424E0,1.0553764E2,8.797407E0,2.5705557E0,1.063805E0,2.8914268E0,1.1648586E1,1.0091417E0,2.785738E0,1.0374367E0,1.04500206E2,5.9516506E0,2.845757E0,2.0252514E0,9.623335E0,9.530422E1,9.195984E0,1.0296731E0,4.921977E0,1.0112897E0,1.8344673E0],"tree_param":{"num_deleted":"0","num_feature":"63","num_nodes":"41","size_leaf_vector":"1"}},{"base_weights":[1.2262263E-2,-5.131885E-1,3.0414462E0,-5.175314E-2,6.966773E-1,3.6373057E0,1.106212E0,1.7324275E-1,-3.272084E-2,-4.2653125E-2,3.8009932E0,2.8806376E0,-2.3820826E-1,4.153854E0,2.3133328E0,9.000048E-1,3.8046882E0,1.22058526E-1,-3.6066005E-1,4.1758496E-1,1.166471E-1,6.801483E-1,3.7373521E0,2.5649974E-1,1.0685491E-1,6.7646995E-2,4.3849964E0,-4.4569972E-1,4.2803682E-2,1.716481E-1,-4.5999344E-2,1.1281117E-1,3.8886288E-1,1.2154006E-1,-4.0896196E-2,1.1803591E-1,4.6559593E-1,-4.9329728E-2,2.3680007E-2],"categories":[],"categories_nodes":[],"categories_segments":[],"categories_sizes":[],"default_left":[0,0,0,0,0,0,0,0,0,0,0,0,0,0,0,0,0,0,0,0,0,0,0,0,0,0,0,0,0,0,0,0,0,0,0,0,0,0,0],"id":39,"left_children":[1,3,5,-1,7,9,11,-1,-1,-1,13,15,17,19,21,23,25,-1,27,-1,-1,29,31,-1,33,-1,35,37,-1,-1,-1,-1,-1,-1,-1,-1,-1,-1,-1],"loss_changes":[1.711944E3,5.17659E0,1.7931116E2,0E0,4.4955616E0,8.219263E1,9.340294E1,0E0,0E0,0E0,5.1564087E1,2.7377945E1,4.5551233E0,1.2358398E0,5.4666733E1,8.526123E0,1.7303787E1,0E0,1.667918E0,0E0,0E0,1.5772183E1,7.12265E-1,0E0,3.674666E0,0E0,2.5245972E0,7.785411E-1,0E0,0E0,0E0,0E0,0E0,0E0,0E0,0E0,0E0,0E0,0E0],"parents":[2147483647,0,0,1,1,2,2,4,4,5,5,6,6,10,10,11,11,12,12,13,13,14,14,15,15,16,16,18,18,21,21,22,22,24,24,26,26,27,27],"right_children":[2,4,6,-1,8,10,12,-1,-1,-1,14,16,18,20,22,24,26,-1,28,-1,-1,30,32,-1,34,-1,36,38,-1,-1,-1,-1,-1,-1,-1,-1,-1,-1,-1],"split_conditions":[7.146454E-1,6.850447E-1,1.2531669E0,-5.175314E-2,3.5317177E-1,5.600293E-1,1.6926683E-1,1.7324275E-1,-3.272084E-2,-4.2653125E-2,-5.0126217E-2,5.855517E-2,7.9778445E-1,5.437347E-1,1.0891613E0,-1.3039975E-1,1.1370698E0,1.22058526E-1,1.9144299E0,4.1758496E-1,1.166471E-1,3.9324698E-1,-4.4442242E-1,2.5649974E-1,-3.1304172E-1,6.7646995E-2,-8.464139E-2,-1.9469729E-1,4.2803682E-2,1.716481E-1,-4.5999344E-2,1.1281117E-1,3.8886288E-1,1.2154006E-1,-4.0896196E-2,1.1803591E-1,4.6559593E-1,-4.9329728E-2,2.3680007E-2],"split_indices":[10,55,61,0,9,7,12,0,0,0,30,16,22,3,46,17,46,0,37,0,0,24,47,0,56,0,24,50,0,0,0,0,0,0,0,0,0,0,0],"split_type":[0,0,0,0,0,0,0,0,0,0,0,0,0,0,0,0,0,0,0,0,0,0,0,0,0,0,0,0,0,0,0,0,0,0,0,0,0,0,0],"sum_hessian":[1.0735725E3,9.1558344E2,1.5798909E2,9.1287885E2,2.7046058E0,1.201235E2,3.78656E1,1.0005E0,1.7041059E0,4.588947E0,1.15534546E2,1.5829914E1,2.2035685E1,9.193592E1,2.3598623E1,5.663852E0,1.0166062E1,1.0119718E0,2.1023714E1,9.086903E1,1.0668867E0,1.1680301E1,1.1918323E1,1.1067042E0,4.557148E0,1.9296689E0,8.236393E0,1.9370066E1,1.653648E0,5.8538985E0,5.8264027E0,1.1165856E0,1.0801738E1,1.0164418E0,3.540706E0,1.0596955E0,7.1766973E0,1.8366411E1,1.0036536E0],"tree_param":{"num_deleted":"0","num_feature":"63","num_nodes":"39","size_leaf_vector":"1"}},{"base_weights":[1.2485869E-2,-4.9445218E-1,3.4950433E0,-5.1541245E-1,8.5668844E-1,3.7979891E0,-4.709133E-2,-5.1755168E-2,-2.1175263E-2,4.03992E-1,-4.7269896E-2,3.5776533E-2,3.902716E0,7.342508E-2,-3.9066236E-2,7.242396E-2,-3.7236836E-2,5.5183526E-2,3.9343843E-1],"categories":[],"categories_nodes":[],"categories_segments":[],"categories_sizes":[],"default_left":[0,0,0,0,0,0,0,0,0,0,0,0,0,0,0,0,0,0,0],"id":40,"left_children":[1,3,5,7,9,11,-1,-1,13,-1,-1,15,17,-1,-1,-1,-1,-1,-1],"loss_changes":[1.9135233E3,2.7237457E1,1.672622E2,9.747772E-1,6.466405E1,5.0317627E1,0E0,0E0,1.6993818E0,0E0,0E0,1.527832E0,1.1049438E1,0E0,0E0,0E0,0E0,0E0,0E0],"parents":[2147483647,0,0,1,1,2,2,3,3,4,4,5,5,8,8,11,11,12,12],"right_children":[2,4,6,8,10,12,-1,-1,14,-1,-1,16,18,-1,-1,-1,-1,-1,-1],"split_conditions":[5.077198E-1,4.391426E-1,1.6091463E-1,4.2102608E-1,-4.1537847E-2,-5.2245617E-1,-4.709133E-2,-5.1755168E-2,5.435414E-1,4.03992E-1,-4.7269896E-2,-3.028129E-1,-3.5303068E-1,7.342508E-2,-3.9066236E-2,7.242396E-2,-3.7236836E-2,5.5183526E-2,3.9343843E-1],"split_indices":[60,60,5,60,13,37,0,0,6,0,0,59,61,0,0,0,0,0,0],"split_type":[0,0,0,0,0,0,0,0,0,0,0,0,0,0,0,0,0,0,0],"sum_hessian":[1.0818995E3,9.451735E2,1.3672604E2,9.3134406E2,1.3829424E1,1.2706252E2,9.663522E0,9.272834E2,4.06068E0,3.4733996E0,1.0356024E1,3.4775114E0,1.23585014E2,1.0095048E0,3.0511754E0,1.0060421E0,2.4714694E0,1.3295501E0,1.2225546E2],"tree_param":{"num_deleted":"0","num_feature":"63","num_nodes":"19","size_leaf_vector":"1"}},{"base_weights":[-2.9248125E-3,3.6736507E0,-5.071048E-1,-4.396587E-2,3.8593078E-1,1.0816425E0,-5.154581E-1,3.4044626E-1,-3.9350774E-2,6.871795E-2,-5.1756006E-2,-3.6008187E-2,7.266852E-2],"categories":[],"categories_nodes":[],"categories_segments":[],"categories_sizes":[],"default_left":[0,0,0,0,0,0,0,0,0,0,0,0,0],"id":41,"left_children":[1,3,5,-1,-1,7,9,-1,-1,11,-1,-1,-1],"loss_changes":[2.0078086E3,1.01450195E2,1.3198837E1,0E0,0E0,1.9516495E1,1.1999207E0,0E0,0E0,1.4699016E0,0E0,0E0,0E0],"parents":[2147483647,0,0,1,1,2,2,5,5,6,6,9,9],"right_children":[2,4,6,-1,-1,8,10,-1,-1,12,-1,-1,-1],"split_conditions":[-2.7926725E-1,-2.3487508E-1,3.8656173E-3,-4.396587E-2,3.8593078E-1,-5.188516E-1,-2.6826724E-1,3.4044626E-1,-3.9350774E-2,-3.9004445E-1,-5.1756006E-2,-3.6008187E-2,7.266852E-2],"split_indices":[8,45,4,0,0,18,8,0,0,45,0,0,0],"split_type":[0,0,0,0,0,0,0,0,0,0,0,0,0],"sum_hessian":[1.0811566E3,1.2962442E2,9.5153217E2,5.538933E0,1.2408549E2,4.304762E0,9.472274E2,1.1640054E0,3.1407564E0,3.2824543E0,9.4394495E2,2.2614164E0,1.0210378E0],"tree_param":{"num_deleted":"0","num_feature":"63","num_nodes":"13","size_leaf_vector":"1"}},{"base_weights":[-1.2235159E-2,3.7865028E0,-4.9988332E-1,3.8952562E-1,-3.907016E-2,-5.1129526E-1,1.7397715E0,1.274623E-1,-5.1650697E-1,3.9307866E-1,-3.716169E-2,-4.4976417E-2,2.1830957E-1,-5.1756006E-2,-1.5309359E-1,2.3806969E-2,-3.53802E-2],"categories":[],"categories_nodes":[],"categories_segments":[],"categories_sizes":[],"default_left":[0,0,0,0,0,0,0,0,0,0,0,0,0,0,0,0,0],"id":42,"left_children":[1,3,5,-1,-1,7,9,11,13,-1,-1,-1,-1,-1,15,-1,-1],"loss_changes":[2.000693E3,5.7340454E1,2.5352707E1,0E0,0E0,3.238556E0,2.4958414E1,1.1085717E1,2.826233E-1,0E0,0E0,0E0,0E0,0E0,4.1021687E-1,0E0,0E0],"parents":[2147483647,0,0,1,1,2,2,5,5,6,6,7,7,8,8,14,14],"right_children":[2,4,6,-1,-1,8,10,12,14,-1,-1,-1,-1,-1,16,-1,-1],"split_conditions":[-3.6658126E-1,3.5246179E-1,-5.6988318E-2,3.8952562E-1,-3.907016E-2,-3.4713465E-1,-3.2424673E-1,3.327738E-2,-7.4865766E-2,3.9307866E-1,-3.716169E-2,-4.4976417E-2,2.1830957E-1,-5.1756006E-2,-1.6595915E-1,2.3806969E-2,-3.53802E-2],"split_indices":[30,1,44,0,0,30,30,39,44,0,0,0,0,0,45,0,0],"split_type":[0,0,0,0,0,0,0,0,0,0,0,0,0,0,0,0,0],"sum_hessian":[1.0780049E3,1.2187149E2,9.561334E2,1.1884487E2,3.0266204E0,9.52054E2,4.079386E0,7.515193E0,9.445388E2,1.579064E0,2.5003223E0,6.4775004E0,1.0376924E0,9.4138666E2,3.1521897E0,1.0058086E0,2.1463811E0],"tree_param":{"num_deleted":"0","num_feature":"63","num_nodes":"17","size_leaf_vector":"1"}},{"base_weights":[1.1563322E-2,1.5754402E0,-4.7545543E-1,3.8358372E-1,-5.0688267E-1,4.452385E-2,-5.148458E-2,-5.1425368E-2,2.2642076E-2,4.3402597E-1,-4.9024498E-1,2.29784E-2,-5.086133E-2],"categories":[],"categories_nodes":[],"categories_segments":[],"categories_sizes":[],"default_left":[0,0,0,0,0,0,0,0,0,0,0,0,0],"id":43,"left_children":[1,3,5,-1,7,9,-1,-1,-1,-1,11,-1,-1],"loss_changes":[8.267181E2,1.2151688E3,1.6976212E1,0E0,8.4638214E-1,1.3813972E2,0E0,0E0,0E0,0E0,8.251219E-1,0E0,0E0],"parents":[2147483647,0,0,1,1,2,2,4,4,5,5,10,10],"right_children":[2,4,6,-1,8,10,-1,-1,-1,-1,12,-1,-1],"split_conditions":[-7.232357E-1,1.7739251E-1,-6.8659455E-1,3.8358372E-1,1.5217306E-1,-8.6291444E-1,-5.148458E-2,-5.1425368E-2,2.2642076E-2,4.3402597E-1,-2.881122E-1,2.29784E-2,-5.086133E-2],"split_indices":[34,18,34,0,45,25,0,0,0,0,44,0,0],"split_type":[0,0,0,0,0,0,0,0,0,0,0,0,0],"sum_hessian":[1.0834648E3,2.5675577E2,8.267091E2,1.22709946E2,1.3404584E2,5.8207047E1,7.685021E2,1.3300758E2,1.0382435E0,5.656101E0,5.2550945E1,1.020938E0,5.1530006E1],"tree_param":{"num_deleted":"0","num_feature":"63","num_nodes":"13","size_leaf_vector":"1"}},{"base_weights":[4.4661033E-4,-4.9492356E-1,2.1689568E0,-5.093961E-1,1.0672781E-1,3.8036664E0,-5.114735E-2,-5.1748067E-2,-3.1447285E-1,2.5188954E0,-4.8955347E-2,3.932449E0,-4.0603172E-2,2.6772383E-1,-4.760437E-1,3.7702587E-1,-2.9198114E-2,1.1034056E-1,3.9502493E-1,-5.0323363E-2,2.321129E-2],"categories":[],"categories_nodes":[],"categories_segments":[],"categories_sizes":[],"default_left":[0,0,0,0,0,0,0,0,0,0,0,0,0,0,0,0,0,0,0,0,0],"id":44,"left_children":[1,3,5,7,9,11,-1,-1,13,15,-1,17,-1,-1,19,-1,-1,-1,-1,-1,-1],"loss_changes":[1.1609003E3,7.714554E0,8.8251544E2,1.19133E0,3.2144814E1,6.933716E1,0E0,0E0,1.9046904E1,1.6656187E1,0E0,1.7513428E0,0E0,0E0,8.0482864E-1,0E0,0E0,0E0,0E0,0E0,0E0],"parents":[2147483647,0,0,1,1,2,2,3,3,4,4,5,5,8,8,9,9,11,11,14,14],"right_children":[2,4,6,8,10,12,-1,-1,14,16,-1,18,-1,-1,20,-1,-1,-1,-1,-1,-1],"split_conditions":[-1.3168651E-1,-1.3954224E-1,6.3394904E-2,-1.5228625E-1,-1.06622286E-1,3.3335721E-1,-5.114735E-2,-5.1748067E-2,-1.4781615E-1,3.1390348E-1,-4.8955347E-2,7.0015416E-2,-4.0603172E-2,2.6772383E-1,-1.9460018E-1,3.7702587E-1,-2.9198114E-2,1.1034056E-1,3.9502493E-1,-5.0323363E-2,2.321129E-2],"split_indices":[50,50,12,50,53,49,0,0,12,9,0,25,0,0,35,0,0,0,0,0,0],"split_type":[0,0,0,0,0,0,0,0,0,0,0,0,0,0,0,0,0,0,0,0,0],"sum_hessian":[1.0786969E3,8.787327E2,1.999642E2,8.582414E2,2.0491362E1,1.2395122E2,7.6012985E1,8.224739E2,3.576749E1,3.422362E0,1.7069E1,1.2033578E2,3.6154394E0,1.034895E0,3.4732594E1,2.1319408E0,1.2904212E0,1.1462468E0,1.1918953E2,3.372701E1,1.0055846E0],"tree_param":{"num_deleted":"0","num_feature":"63","num_nodes":"21","size_leaf_vector":"1"}},{"base_weights":[-2.2405375E-2,-5.1162076E-1,1.7615066E0,-5.1749863E-2,8.9917056E-2,3.6706614E0,-5.0396466E-1,-4.5355022E-2,2.1943453E-1,-4.415203E-2,3.8678795E-1,1.6434718E-3,-5.1318217E-2],"categories":[],"categories_nodes":[],"categories_segments":[],"categories_sizes":[],"default_left":[0,0,0,0,0,0,0,0,0,0,0,0,0],"id":45,"left_children":[1,3,5,-1,7,9,11,-1,-1,-1,-1,-1,-1],"loss_changes":[9.4241327E2,3.0427704E0,1.0070424E3,0E0,1.1348215E1,1.0408984E2,5.224781E-1,0E0,0E0,0E0,0E0,0E0,0E0],"parents":[2147483647,0,0,1,1,2,2,4,4,5,5,6,6],"right_children":[2,4,6,-1,8,10,12,-1,-1,-1,-1,-1,-1],"split_conditions":[7.1107763E-1,7.0167613E-1,-1.0145439E-1,-5.1749863E-2,3.4637856E-1,9.653281E-1,1.7825949E-1,-4.5355022E-2,2.1943453E-1,-4.415203E-2,3.8678795E-1,1.6434718E-3,-5.1318217E-2],"split_indices":[9,9,5,0,49,1,24,0,0,0,0,0,0],"split_type":[0,0,0,0,0,0,0,0,0,0,0,0,0],"sum_hessian":[1.0778284E3,8.4642114E2,2.3140717E2,8.383689E2,8.052268E0,1.2524261E2,1.0616455E2,7.023049E0,1.0292197E0,5.674987E0,1.1956762E2,1.8340721E0,1.0433048E2],"tree_param":{"num_deleted":"0","num_feature":"63","num_nodes":"13","size_leaf_vector":"1"}},{"base_weights":[2.3016546E-2,3.2466242E0,-4.3710655E-1,3.8689268E0,-4.928978E-2,9.045539E-1,-5.0212234E-1,3.8923973E-1,6.8458505E-2,-4.972956E-2,2.5554173E0,1.3241513E-1,-5.1083577E-1,4.2118356E-1,-4.5595843E-2,1.7215904E0,-3.7664685E-1,-2.6379138E-1,-5.1524635E-2,-2.9550105E-2,3.1841758E-1,2.3789778E-2,-4.6479613E-2,1.6697805E-1,-4.8724283E-2],"categories":[],"categories_nodes":[],"categories_segments":[],"categories_sizes":[],"default_left":[0,0,0,0,0,0,0,0,0,0,0,0,0,0,0,0,0,0,0,0,0,0,0,0,0],"id":46,"left_children":[1,3,5,7,-1,9,11,-1,-1,-1,13,15,17,-1,-1,19,21,23,-1,-1,-1,-1,-1,-1,-1],"loss_changes":[1.6092738E3,3.172727E2,8.32769E1,6.0270996E0,0E0,1.03657486E2,5.0782623E0,0E0,0E0,0E0,1.04073105E2,1.1221933E1,8.3836365E-1,0E0,0E0,1.0825403E1,6.9126976E-1,8.47531E0,0E0,0E0,0E0,0E0,0E0,0E0,0E0],"parents":[2147483647,0,0,1,1,2,2,3,3,5,5,6,6,10,10,11,11,12,12,15,15,16,16,17,17],"right_children":[2,4,6,8,-1,10,12,-1,-1,-1,14,16,18,-1,-1,20,22,24,-1,-1,-1,-1,-1,-1,-1],"split_conditions":[-1.0660133E0,2.7770847E-1,-7.7570677E-1,9.379808E-2,-4.928978E-2,-9.5778875E-2,-7.6686877E-1,3.8923973E-1,6.8458505E-2,-4.972956E-2,-7.115508E-1,-4.4935325E-1,-9.9656475E-1,4.2118356E-1,-4.5595843E-2,-1.1813552E-1,-3.0875102E-1,3.39306E-1,-5.1524635E-2,-2.9550105E-2,3.1841758E-1,2.3789778E-2,-4.6479613E-2,1.6697805E-1,-4.8724283E-2],"split_indices":[37,18,34,33,0,13,34,0,0,0,22,19,37,0,0,13,59,21,0,0,0,0,0,0,0],"split_type":[0,0,0,0,0,0,0,0,0,0,0,0,0,0,0,0,0,0,0,0,0,0,0,0,0],"sum_hessian":[1.0830032E3,1.3451804E2,9.484851E2,1.1529666E2,1.9221384E1,4.324162E1,9.0524347E2,1.14232346E2,1.0643154E0,2.3762331E1,1.947929E1,1.2070024E1,8.9317346E2,1.23096695E1,7.1696196E0,2.3504784E0,9.719545E0,1.673303E1,8.764404E2,1.3233584E0,1.0271201E0,1.0061599E0,8.713386E0,1.0628957E0,1.5670135E1],"tree_param":{"num_deleted":"0","num_feature":"63","num_nodes":"25","size_leaf_vector":"1"}},{"base_weights":[1.1136169E-2,1.5995597E0,-4.980811E-1,-5.0603706E-1,3.4987054E0,-7.998118E-2,-5.1745217E-2,-5.13889E-2,-8.870617E-2,3.857325E0,-4.7632936E-2,4.5228764E-1,-5.0360728E-2,-3.1368475E-2,2.4013396E-2,3.88739E-1,1.9940099E-2],"categories":[],"categories_nodes":[],"categories_segments":[],"categories_sizes":[],"default_left":[0,0,0,0,0,0,0,0,0,0,0,0,0,0,0,0,0],"id":47,"left_children":[1,3,5,7,9,11,-1,-1,13,15,-1,-1,-1,-1,-1,-1,-1],"loss_changes":[8.772278E2,1.0545701E3,6.610153E0,3.6639786E-1,1.993451E2,7.549326E1,0E0,0E0,3.365156E-1,1.3213135E1,0E0,0E0,0E0,0E0,0E0,0E0,0E0],"parents":[2147483647,0,0,1,1,2,2,3,3,4,4,5,5,8,8,9,9],"right_children":[2,4,6,8,10,12,-1,-1,14,16,-1,-1,-1,-1,-1,-1,-1],"split_conditions":[-7.2054625E-1,-2.3944326E-2,-6.977533E-1,-1.4259294E-1,-6.1664537E-2,-8.7913655E-2,-5.1745217E-2,-5.13889E-2,-5.2632127E-2,-4.5989405E-2,-4.7632936E-2,4.5228764E-1,-5.0360728E-2,-3.1368475E-2,2.4013396E-2,3.88739E-1,1.9940099E-2],"split_indices":[34,13,34,23,36,30,0,0,41,41,0,0,0,0,0,0,0],"split_type":[0,0,0,0,0,0,0,0,0,0,0,0,0,0,0,0,0],"sum_hessian":[1.0825485E3,2.6227658E2,8.202719E2,1.2472576E2,1.3755081E2,3.6548527E1,7.837234E2,1.2219532E2,2.5304446E0,1.26195335E2,1.13554735E1,2.2647364E0,3.428379E1,1.5298638E0,1.0005809E0,1.2510436E2,1.0909764E0],"tree_param":{"num_deleted":"0","num_feature":"63","num_nodes":"17","size_leaf_vector":"1"}},{"base_weights":[-8.33717E-5,-4.846594E-1,3.116938E0,7.359797E-1,-5.099375E-1,-4.9883448E-2,3.9062253E-1,3.884096E-1,-4.8351716E-2,-5.1424605E-1,-1.4801483E-1,-5.175366E-2,-3.8938364E-1,-4.7173645E-2,1.7352736E-1,1.23426616E-1,-4.98436E-2],"categories":[],"categories_nodes":[],"categories_segments":[],"categories_sizes":[],"default_left":[0,0,0,0,0,0,0,0,0,0,0,0,0,0,0,0,0],"id":48,"left_children":[1,3,5,7,9,-1,-1,-1,-1,11,13,-1,15,-1,-1,-1,-1],"loss_changes":[1.6336107E3,2.9257034E1,4.1723706E2,7.635787E1,1.3547974E0,0E0,0E0,0E0,0E0,1.7088318E-1,8.256236E0,0E0,5.4512377E0,0E0,0E0,0E0,0E0],"parents":[2147483647,0,0,1,1,2,2,3,3,4,4,9,9,10,10,12,12],"right_children":[2,4,6,8,10,-1,-1,-1,-1,12,14,-1,16,-1,-1,-1,-1],"split_conditions":[-6.372412E-2,-3.9884558E-1,8.0345206E-2,-7.0494795E-1,-7.233726E-2,-4.9883448E-2,3.9062253E-1,3.884096E-1,-4.8351716E-2,-8.419037E-2,7.8838044E-1,-5.175366E-2,2.5130492E-2,-4.7173645E-2,1.7352736E-1,1.23426616E-1,-4.98436E-2],"split_indices":[32,50,2,25,32,0,0,0,0,32,4,0,16,0,0,0,0],"split_type":[0,0,0,0,0,0,0,0,0,0,0,0,0,0,0,0,0],"sum_hessian":[1.0795505E3,9.3503357E2,1.4451697E2,1.8400246E1,9.166333E2,2.5960112E1,1.18556854E2,4.5275164E0,1.3872728E1,9.0543365E2,1.11996355E1,8.7912115E2,2.6312548E1,1.0196463E1,1.0031726E0,1.0066535E0,2.5305895E1],"tree_param":{"num_deleted":"0","num_feature":"63","num_nodes":"17","size_leaf_vector":"1"}},{"base_weights":[1.6057566E-2,-4.5841283E-1,1.1930896E0,-5.089624E-1,6.8619475E-2,-4.9882594E-1,3.4921417E0,-5.159212E-2,-2.1821487E-1,2.5143552E0,-3.4317622E-1,8.762556E-2,-5.1526636E-2,3.8899207E0,-4.045629E-1,2.0510569E-1,-4.876994E-2,-4.0022813E-2,4.0331697E-1,-5.0802827E-2,5.8382964E-1,-3.730538E-2,3.9865346E0,-4.764628E-2,2.2929022E-2,2.761994E-1,-4.4681054E-2,4.0116563E-1,6.7881346E-2],"categories":[],"categories_nodes":[],"categories_segments":[],"categories_sizes":[],"default_left":[0,0,0,0,0,0,0,0,0,0,0,0,0,0,0,0,0,0,0,0,0,0,0,0,0,0,0,0,0],"id":49,"left_children":[1,3,5,7,9,11,13,-1,15,17,19,-1,-1,21,23,-1,-1,-1,-1,-1,25,-1,27,-1,-1,-1,-1,-1,-1],"loss_changes":[6.046313E2,2.0592453E1,1.2116304E3,1.3122559E0,6.976638E1,4.5219803E0,2.0615662E2,0E0,1.2126574E1,4.5789562E1,9.37947E0,0E0,0E0,5.0851196E1,7.0768595E-1,0E0,0E0,0E0,0E0,0E0,2.2423838E1,0E0,7.022583E0,0E0,0E0,0E0,0E0,0E0,0E0],"parents":[2147483647,0,0,1,1,2,2,3,3,4,4,5,5,6,6,8,8,9,9,10,10,13,13,14,14,20,20,22,22],"right_children":[2,4,6,8,10,12,14,-1,16,18,20,-1,-1,22,24,-1,-1,-1,-1,-1,26,-1,28,-1,-1,-1,-1,-1,-1],"split_conditions":[1.5073478E-1,1.2484625E-1,1.964876E-1,-1.5424448E-1,-2.880906E-1,-2.638755E-1,9.750487E-2,-5.159212E-2,7.227501E-1,-6.332607E-2,-1.5475361E-1,8.762556E-2,-5.1526636E-2,-1.1711704E-1,3.2786656E-2,2.0510569E-1,-4.876994E-2,-4.0022813E-2,4.0331697E-1,-5.0802827E-2,-1.6956005E-1,-3.730538E-2,-4.9898854E-1,-4.764628E-2,2.2929022E-2,2.761994E-1,-4.4681054E-2,4.0116563E-1,6.7881346E-2],"split_indices":[33,33,15,26,14,14,34,0,4,45,23,0,0,43,17,0,0,0,0,0,11,0,22,0,0,0,0,0,0],"split_type":[0,0,0,0,0,0,0,0,0,0,0,0,0,0,0,0,0,0,0,0,0,0,0,0,0,0,0,0,0],"sum_hessian":[1.0806835E3,7.706424E2,3.1004117E2,7.0322754E2,6.74148E1,1.7905457E2,1.3098659E2,6.860335E2,1.7194052E1,8.979277E0,5.8435528E1,1.49758E0,1.7755699E2,1.1885545E2,1.2131128E1,1.1233683E0,1.6070684E1,3.3284721E0,5.6508045E0,4.999648E1,8.439047E0,2.5705774E0,1.1628488E2,1.11182575E1,1.0128703E0,2.1709852E0,6.2680616E0,1.1519717E2,1.087713E0],"tree_param":{"num_deleted":"0","num_feature":"63","num_nodes":"29","size_leaf_vector":"1"}},{"base_weights":[1.5284283E-3,3.2994995E0,-5.101043E-1,-4.940621E-2,3.9252982E-1,2.934242E-1,-5.1755127E-2,-4.551281E-2,3.1125993E-1],"categories":[],"categories_nodes":[],"categories_segments":[],"categories_sizes":[],"default_left":[0,0,0,0,0,0,0,0,0],"id":50,"left_children":[1,3,5,-1,-1,7,-1,-1,-1],"loss_changes":[1.8257257E3,3.469165E2,5.7568665E0,0E0,0E0,2.0914831E1,0E0,0E0,0E0],"parents":[2147483647,0,0,1,1,2,2,5,5],"right_children":[2,4,6,-1,-1,8,-1,-1,-1],"split_conditions":[-7.442465E-1,5.750709E-1,-7.153866E-1,-4.940621E-2,3.9252982E-1,5.723652E-1,-5.1755127E-2,-4.551281E-2,3.1125993E-1],"split_indices":[57,9,57,0,0,6,0,0,0],"split_type":[0,0,0,0,0,0,0,0,0],"sum_hessian":[1.0800103E3,1.443144E2,9.3569586E2,2.0465284E1,1.2384912E2,8.239539E0,9.274563E2,7.1734037E0,1.066135E0],"tree_param":{"num_deleted":"0","num_feature":"63","num_nodes":"9","size_leaf_vector":"1"}},{"base_weights":[-3.0735503E-3,3.7631793E0,-5.113061E-1,-2.8851291E-2,3.8051817E-1,7.336447E-1,-5.175677E-2,-3.9472297E-2,2.6751998E-1],"categories":[],"categories_nodes":[],"categories_segments":[],"categories_sizes":[],"default_left":[0,0,0,0,0,0,0,0,0],"id":51,"left_children":[1,3,5,-1,-1,7,-1,-1,-1],"loss_changes":[2.0768381E3,2.3052246E1,7.8320465E0,0E0,0E0,1.2443378E1,0E0,0E0,0E0],"parents":[2147483647,0,0,1,1,2,2,5,5],"right_children":[2,4,6,-1,-1,8,-1,-1,-1],"split_conditions":[-1.3609797E-1,4.792414E-1,-6.861232E-2,-2.8851291E-2,3.8051817E-1,4.205986E-1,-5.175677E-2,-3.9472297E-2,2.6751998E-1],"split_indices":[3,21,3,0,0,21,0,0,0],"split_type":[0,0,0,0,0,0,0,0,0],"sum_hessian":[1.0829972E3,1.2800592E2,9.549912E2,1.2531579E0,1.2675276E2,4.1978626E0,9.507934E2,3.158781E0,1.0390817E0],"tree_param":{"num_deleted":"0","num_feature":"63","num_nodes":"9","size_leaf_vector":"1"}},{"base_weights":[1.541631E-2,1.2430054E0,-5.0449044E-1,2.7256618E0,-5.1348712E-2,-5.135608E-1,4.6460524E-1,1.6890174E-2,2.74183E-1,-3.4251776E-2,-5.162068E-2,-4.1751333E-2,1.712885E-1,-3.9263252E-2,7.2223626E-2],"categories":[],"categories_nodes":[],"categories_segments":[],"categories_sizes":[],"default_left":[0,0,0,0,0,0,0,0,0,0,0,0,0,0,0],"id":52,"left_children":[1,3,5,7,-1,9,11,-1,-1,13,-1,-1,-1,-1,-1],"loss_changes":[6.829669E2,8.3051013E2,6.846466E0,6.6799316E0,0E0,9.27475E-1,8.969024E0,0E0,0E0,1.6832114E0,0E0,0E0,0E0,0E0,0E0],"parents":[2147483647,0,0,1,1,2,2,3,3,5,5,6,6,9,9],"right_children":[2,4,6,8,-1,10,12,-1,-1,14,-1,-1,-1,-1,-1],"split_conditions":[-3.1868634E-1,-1.3575757E-1,5.5392355E-1,-2.5563878E-1,-5.1348712E-2,-1.674136E-1,2.5551477E-1,1.6890174E-2,2.74183E-1,-1.8481095E-1,-5.162068E-2,-4.1751333E-2,1.712885E-1,-3.9263252E-2,7.2223626E-2],"split_indices":[23,13,49,42,0,5,24,0,0,20,0,0,0,0,0],"split_type":[0,0,0,0,0,0,0,0,0,0,0,0,0,0,0],"sum_hessian":[1.0681097E3,3.1736517E2,7.507445E2,1.7179832E2,1.4556685E2,7.442487E2,6.4958143E0,1.1514894E0,1.7064684E2,4.1626067E0,7.400861E2,4.196098E0,2.2997165E0,3.1508799E0,1.0117269E0],"tree_param":{"num_deleted":"0","num_feature":"63","num_nodes":"15","size_leaf_vector":"1"}},{"base_weights":[-1.7224386E-2,-5.0816023E-1,2.0066965E0,-5.1511836E-1,2.0200376E-1,2.6520044E-1,-5.04974E-2,-5.1628925E-2,-2.0199816E-1,2.718476E-1,-4.5342665E-2,-3.818038E-2,2.4091454E-2],"categories":[],"categories_nodes":[],"categories_segments":[],"categories_sizes":[],"default_left":[0,0,0,0,0,0,0,0,0,0,0,0,0],"id":53,"left_children":[1,3,5,7,9,-1,-1,-1,11,-1,-1,-1,-1],"loss_changes":[1.0576248E3,4.336899E0,3.381281E2,2.0678711E-1,1.6126154E1,0E0,0E0,0E0,4.7455534E-1,0E0,0E0,0E0,0E0],"parents":[2147483647,0,0,1,1,2,2,3,3,4,4,8,8],"right_children":[2,4,6,8,10,-1,-1,-1,12,-1,-1,-1,-1],"split_conditions":[-7.596152E-2,-7.917356E-2,3.6165896E-1,-8.078045E-2,-4.561023E-2,2.6520044E-1,-5.04974E-2,-5.1628925E-2,-1.3787846E-1,2.718476E-1,-4.5342665E-2,-3.818038E-2,2.4091454E-2],"split_indices":[32,32,21,32,5,0,0,0,42,0,0,0,0],"split_type":[0,0,0,0,0,0,0,0,0,0,0,0,0],"sum_hessian":[1.0623943E3,8.5560254E2,2.0679178E2,8.4757275E2,8.029812E0,1.6447769E2,4.231409E1,8.4376886E2,3.803892E0,1.0088383E0,7.020973E0,2.8036766E0,1.0002152E0],"tree_param":{"num_deleted":"0","num_feature":"63","num_nodes":"13","size_leaf_vector":"1"}},{"base_weights":[-1.1354232E-2,-4.8072973E-1,2.3513384E0,-5.104894E-1,3.329214E-1,2.576333E0,-4.800186E-2,-5.1510334E-1,-1.6322555E-1,-4.970422E-2,3.0919087E-1,-4.3558713E-2,2.68105E-1,-5.162807E-2,-3.2712826E-1,1.6927798E-1,-4.7271337E-2,2.4004234E-2,-4.4295885E-2],"categories":[],"categories_nodes":[],"categories_segments":[],"categories_sizes":[],"default_left":[0,0,0,0,0,0,0,0,0,0,0,0,0,0,0,0,0,0,0],"id":54,"left_children":[1,3,5,7,9,11,-1,13,15,-1,-1,-1,-1,-1,17,-1,-1,-1,-1],"loss_changes":[1.1787849E3,2.1641678E1,1.134624E2,1.2872314E0,7.456986E1,5.2690186E1,0E0,1.7929077E-2,8.087234E0,0E0,0E0,0E0,0E0,0E0,6.308334E-1,0E0,0E0,0E0,0E0],"parents":[2147483647,0,0,1,1,2,2,3,3,4,4,5,5,7,7,8,8,14,14],"right_children":[2,4,6,8,10,12,-1,14,16,-1,-1,-1,-1,-1,18,-1,-1,-1,-1],"split_conditions":[-5.271896E-2,-2.0642627E-2,-3.1670433E-1,-3.372046E-2,7.6128143E-1,6.2547815E-1,-4.800186E-2,-3.916106E-2,2.1174628E-1,-4.970422E-2,3.0919087E-1,-4.3558713E-2,2.68105E-1,-5.162807E-2,3.4091678E-2,1.6927798E-1,-4.7271337E-2,2.4004234E-2,-4.4295885E-2],"split_indices":[14,11,22,11,4,4,0,11,18,0,0,0,0,0,30,0,0,0,0],"split_type":[0,0,0,0,0,0,0,0,0,0,0,0,0,0,0,0,0,0,0],"sum_hessian":[1.0609161E3,8.857488E2,1.7516743E2,8.548546E2,3.0894123E1,1.6235585E2,1.2811586E1,8.431685E2,1.1686099E1,2.437995E1,6.5141745E0,5.3488903E0,1.5700696E2,8.361847E2,6.983849E0,1.0313647E0,1.0654734E1,1.0025334E0,5.9813156E0],"tree_param":{"num_deleted":"0","num_feature":"63","num_nodes":"19","size_leaf_vector":"1"}},{"base_weights":[1.5871452E-2,2.268538E0,-4.9257168E-1,2.6790347E0,-4.974695E-2,8.013947E-1,-5.06022E-1,2.6994607E-1,-2.6985392E-2,-4.3911457E-2,2.7948996E-1,-7.2842866E-2,-5.151244E-1,2.5608894E-1,-4.8688218E-2,-5.1628586E-2,1.6217323E-2],"categories":[],"categories_nodes":[],"categories_segments":[],"categories_sizes":[],"default_left":[0,0,0,0,0,0,0,0,0,0,0,0,0,0,0,0,0],"id":55,"left_children":[1,3,5,7,-1,9,11,-1,-1,-1,-1,13,15,-1,-1,-1,-1],"loss_changes":[1.2262657E3,2.2518665E2,1.5608383E1,1.1078369E1,0E0,2.4407602E1,3.3737183E0,0E0,0E0,0E0,0E0,2.1932886E1,7.501526E-1,0E0,0E0,0E0,0E0],"parents":[2147483647,0,0,1,1,2,2,3,3,5,5,6,6,11,11,12,12],"right_children":[2,4,6,8,-1,10,12,-1,-1,-1,-1,14,16,-1,-1,-1,-1],"split_conditions":[-3.7657872E-1,-5.0276756E-1,-5.7471925E-1,3.344366E-2,-4.974695E-2,-8.112275E-2,-5.4346687E-1,2.6994607E-1,-2.6985392E-2,-4.3911457E-2,2.7948996E-1,3.19235E-1,4.9273726E-2,2.5608894E-1,-4.8688218E-2,-5.1628586E-2,1.6217323E-2],"split_indices":[62,61,58,16,0,5,58,0,0,0,0,6,20,0,0,0,0],"split_type":[0,0,0,0,0,0,0,0,0,0,0,0,0,0,0,0,0],"sum_hessian":[1.068669E3,1.9615204E2,8.7251685E2,1.7083086E2,2.5321173E1,8.3735075E0,8.641434E2,1.6973972E2,1.0911423E0,5.6422195E0,2.7312877E0,1.796986E1,8.461735E2,1.7368028E0,1.6233057E1,8.449623E2,1.2112429E0],"tree_param":{"num_deleted":"0","num_feature":"63","num_nodes":"17","size_leaf_vector":"1"}},{"base_weights":[3.7820127E-3,1.4303602E0,-5.062122E-1,2.66585E-1,-5.121533E-2,3.4560746E-1,-5.1624395E-2,2.6418808E-1,-4.534707E-2],"categories":[],"categories_nodes":[],"categories_segments":[],"categories_sizes":[],"default_left":[0,0,0,0,0,0,0,0,0],"id":56,"left_children":[1,3,5,-1,-1,7,-1,-1,-1],"loss_changes":[7.784705E2,6.776273E2,6.9138794E0,0E0,0E0,1.9131666E1,0E0,0E0,0E0],"parents":[2147483647,0,0,1,1,2,2,5,5],"right_children":[2,4,6,-1,-1,8,-1,-1,-1],"split_conditions":[-3.8056138E-1,2.4270506E-1,-3.665765E-1,2.66585E-1,-5.121533E-2,2.4486327E-1,-5.1624395E-2,2.6418808E-1,-4.534707E-2],"split_indices":[43,9,43,0,0,9,0,0,0],"split_type":[0,0,0,0,0,0,0,0,0],"sum_hessian":[1.0679989E3,2.8078107E2,7.872178E2,1.7139621E2,1.0938487E2,8.773628E0,7.7844415E2,1.6696043E0,7.1040244E0],"tree_param":{"num_deleted":"0","num_feature":"63","num_nodes":"9","size_leaf_vector":"1"}},{"base_weights":[-1.3821087E-2,2.6243792E0,-5.163234E-2,-3.0980945E-2,2.652101E-1],"categories":[],"categories_nodes":[],"categories_segments":[],"categories_sizes":[],"default_left":[0,0,0,0,0],"id":57,"left_children":[1,3,-1,-1,-1],"loss_changes":[1.4137257E3,1.4700073E1,0E0,0E0,0E0],"parents":[2147483647,0,0,1,1],"right_children":[2,4,-1,-1,-1],"split_conditions":[-6.106818E-1,4.409363E-2,-5.163234E-2,-3.0980945E-2,2.652101E-1],"split_indices":[46,16,0,0,0],"split_type":[0,0,0,0,0],"sum_hessian":[1.0643759E3,1.6962111E2,8.947548E2,1.492303E0,1.681288E2],"tree_param":{"num_deleted":"0","num_feature":"63","num_nodes":"5","size_leaf_vector":"1"}},{"base_weights":[-2.5984304E-2,2.5623457E0,-5.1633775E-2,-4.454851E-2,2.6801395E-1],"categories":[],"categories_nodes":[],"categories_segments":[],"categories_sizes":[],"default_left":[0,0,0,0,0],"id":58,"left_children":[1,3,-1,-1,-1],"loss_changes":[1.3473955E3,6.1102905E1,0E0,0E0,0E0],"parents":[2147483647,0,0,1,1],"right_children":[2,4,-1,-1,-1],"split_conditions":[-2.2623618E-1,6.1707016E-2,-5.1633775E-2,-4.454851E-2,2.6801395E-1],"split_indices":[10,2,0,0,0],"split_type":[0,0,0,0,0],"sum_hessian":[1.0595706E3,1.6808876E2,8.914818E2,6.2298427E0,1.6185892E2],"tree_param":{"num_deleted":"0","num_feature":"63","num_nodes":"5","size_leaf_vector":"1"}},{"base_weights":[-1.8912878E-2,2.3980906E0,-5.163132E-2,2.6908574E-1,-4.874937E-2],"categories":[],"categories_nodes":[],"categories_segments":[],"categories_sizes":[],"default_left":[0,0,0,0,0],"id":59,"left_children":[1,3,-1,-1,-1],"loss_changes":[1.2774227E3,1.5451453E2,0E0,0E0,0E0],"parents":[2147483647,0,0,1,1],"right_children":[2,4,-1,-1,-1],"split_conditions":[-6.2435615E-1,2.2259976E-1,-5.163132E-2,2.6908574E-1,-4.874937E-2],"split_indices":[36,10,0,0,0],"split_type":[0,0,0,0,0],"sum_hessian":[1.060525E3,1.8034727E2,8.8017773E2,1.6379626E2,1.6551018E1],"tree_param":{"num_deleted":"0","num_feature":"63","num_nodes":"5","size_leaf_vector":"1"}},{"base_weights":[7.134513E-3,2.3808954E0,-4.8299378E-1,2.6714557E-1,-4.879107E-2,4.3049908E-1,-5.1166445E-1,3.0555087E-1,-4.926613E-2,-3.5379715E-2,-5.128112E-1,2.400584E-2,-2.7646178E-2,-2.2765186E-1,-5.1511325E-2,7.341849E-2,-4.5001574E-2],"categories":[],"categories_nodes":[],"categories_segments":[],"categories_sizes":[],"default_left":[0,0,0,0,0,0,0,0,0,0,0,0,0,0,0,0,0],"id":60,"left_children":[1,3,5,-1,-1,7,9,-1,-1,11,13,-1,-1,15,-1,-1,-1],"loss_changes":[1.2442356E3,1.5386511E2,2.3436172E1,0E0,0E0,6.818888E1,4.5152283E-1,0E0,0E0,2.7484274E-1,4.458313E-1,0E0,0E0,2.1828165E0,0E0,0E0,0E0],"parents":[2147483647,0,0,1,1,2,2,5,5,6,6,9,9,10,10,13,13],"right_children":[2,4,6,-1,-1,8,10,-1,-1,12,14,-1,-1,16,-1,-1,-1],"split_conditions":[-7.171309E-1,-6.3116565E-2,-6.648154E-1,2.6714557E-1,-4.879107E-2,5.040699E-1,-5.3528473E-2,3.0555087E-1,-4.926613E-2,4.2040274E-1,-6.503041E-1,2.400584E-2,-2.7646178E-2,6.258657E-3,-5.1511325E-2,7.341849E-2,-4.5001574E-2],"split_indices":[61,5,61,0,0,9,2,0,0,3,61,0,0,10,0,0,0],"split_type":[0,0,0,0,0,0,0,0,0,0,0,0,0,0,0,0,0],"sum_hessian":[1.0674502E3,1.8202408E2,8.8542615E2,1.6534618E2,1.6677902E1,2.651761E1,8.589085E2,6.2983627E0,2.0219248E1,2.139545E0,8.56769E2,1.000599E0,1.1389459E0,7.6611238E0,8.4910785E2,1.0063633E0,6.654761E0],"tree_param":{"num_deleted":"0","num_feature":"63","num_nodes":"17","size_leaf_vector":"1"}},{"base_weights":[-2.182729E-2,2.053692E0,-5.162961E-2,2.6511058E-1,-5.0392717E-2],"categories":[],"categories_nodes":[],"categories_segments":[],"categories_sizes":[],"default_left":[0,0,0,0,0],"id":61,"left_children":[1,3,-1,-1,-1],"loss_changes":[1.0919879E3,3.1414215E2,0E0,0E0,0E0],"parents":[2147483647,0,0,1,1],"right_children":[2,4,-1,-1,-1],"split_conditions":[-7.489587E-1,-5.2567016E-2,-5.162961E-2,2.6511058E-1,-5.0392717E-2],"split_indices":[60,16,0,0,0],"split_type":[0,0,0,0,0],"sum_hessian":[1.0619926E3,2.0372194E2,8.582706E2,1.6511703E2,3.86049E1],"tree_param":{"num_deleted":"0","num_feature":"63","num_nodes":"5","size_leaf_vector":"1"}},{"base_weights":[2.220782E-2,1.8810765E0,-4.8838496E-1,-5.0579276E-2,2.4582307E0,3.6868265E-1,-5.1625896E-2,2.675492E0,-4.7974516E-2,2.0283298E0,-4.896054E-2,2.7089176E-1,-3.3724602E-2,-3.470775E-2,2.7309895E-1],"categories":[],"categories_nodes":[],"categories_segments":[],"categories_sizes":[],"default_left":[0,0,0,0,0,0,0,0,0,0,0,0,0,0,0],"id":62,"left_children":[1,3,5,-1,7,9,-1,11,-1,13,-1,-1,-1,-1,-1],"loss_changes":[1.0191713E3,3.2000403E2,2.0316223E1,0E0,1.2033093E2,3.962255E1,0E0,1.8417114E1,0E0,1.6701553E1,0E0,0E0,0E0,0E0,0E0],"parents":[2147483647,0,0,1,1,2,2,4,4,5,5,7,7,9,9],"right_children":[2,4,6,-1,8,10,-1,12,-1,14,-1,-1,-1,-1,-1],"split_conditions":[-1.005714E0,2.7770847E-1,-1.9433792E-1,-5.0579276E-2,2.6907131E-2,-9.7580665E-1,-5.1625896E-2,3.7546694E-1,-4.7974516E-2,9.825066E-1,-4.896054E-2,2.7089176E-1,-3.3724602E-2,-3.470775E-2,2.7309895E-1],"split_indices":[37,18,12,0,13,37,0,6,0,1,0,0,0,0,0],"split_type":[0,0,0,0,0,0,0,0,0,0,0,0,0,0,0],"sum_hessian":[1.0718331E3,2.303898E2,8.414433E2,4.4885544E1,1.8550426E2,2.6118763E1,8.153245E2,1.728141E2,1.2690151E1,8.438415E0,1.768035E1,1.7101756E2,1.7965502E0,2.0418382E0,6.396576E0],"tree_param":{"num_deleted":"0","num_feature":"63","num_nodes":"15","size_leaf_vector":"1"}},{"base_weights":[-1.2586194E-2,-5.071204E-1,2.117831E0,-5.1628917E-2,3.6031058E-1,2.6757926E-1,-5.0270595E-2,-4.5395713E-2,2.763159E-1],"categories":[],"categories_nodes":[],"categories_segments":[],"categories_sizes":[],"default_left":[0,0,0,0,0,0,0,0,0],"id":63,"left_children":[1,3,5,-1,7,-1,-1,-1,-1],"loss_changes":[1.1215946E3,7.0575714E0,2.9460126E2,0E0,2.00879E1,0E0,0E0,0E0,0E0],"parents":[2147483647,0,0,1,1,2,2,4,4],"right_children":[2,4,6,-1,8,-1,-1,-1,-1],"split_conditions":[8.3001876E-1,8.2130325E-1,-6.63942E-1,-5.1628917E-2,9.826745E-1,2.6757926E-1,-5.0270595E-2,-4.5395713E-2,2.763159E-1],"split_indices":[4,4,22,0,12,0,0,0,0],"split_type":[0,0,0,0,0,0,0,0,0],"sum_hessian":[1.0625524E3,8.629886E2,1.9956378E2,8.5436273E2,8.625837E0,1.6451447E2,3.5049305E1,7.048384E0,1.5774529E0],"tree_param":{"num_deleted":"0","num_feature":"63","num_nodes":"9","size_leaf_vector":"1"}},{"base_weights":[1.0924896E-2,-4.926494E-1,2.428495E0,-5.0834846E-1,1.5043944E0,2.623095E0,9.1392386E-1,-5.1630575E-2,1.0902756E-1,2.6254163E0,-3.7380204E-2,2.8277607E0,2.1057484E0,-1.5207465E-1,1.9936061E0,1.8704097E-1,-3.701272E-1,6.942449E-2,3.002959E-1,8.236264E-2,2.8481424E-1,-2.6881146E-1,2.347968E0,1.2159177E-1,-3.835132E-1,2.7651622E0,2.4175012E-1,2.2715537E-2,-4.622659E-2,-4.276504E-2,2.081101E-2,-3.2264154E-2,2.447061E0,2.2569826E-2,-4.6759225E-2,5.8512557E-2,3.104536E-1,-3.8352653E-2,1.2147309E-1,1.2178062E-2,2.516538E-1],"categories":[],"categories_nodes":[],"categories_segments":[],"categories_sizes":[],"default_left":[0,0,0,0,0,0,0,0,0,0,0,0,0,0,0,0,0,0,0,0,0,0,0,0,0,0,0,0,0,0,0,0,0,0,0,0,0,0,0,0,0],"id":64,"left_children":[1,3,5,7,9,11,13,-1,15,17,-1,19,21,23,25,-1,27,-1,-1,-1,-1,29,31,-1,33,35,37,-1,-1,-1,-1,-1,39,-1,-1,-1,-1,-1,-1,-1,-1],"loss_changes":[1.2909971E3,2.8280426E1,5.14823E1,4.3378754E0,1.5926319E1,1.1140991E1,2.602482E1,0E0,1.0749018E1,1.2469273E0,0E0,2.2606812E0,2.920784E1,4.3208675E0,1.4434658E1,0E0,6.664742E-1,0E0,0E0,0E0,0E0,5.0535995E-1,1.2747971E1,0E0,6.778436E-1,3.8518028E0,3.2110813E0,0E0,0E0,0E0,0E0,0E0,6.7514954E0,0E0,0E0,0E0,0E0,0E0,0E0,0E0,0E0],"parents":[2147483647,0,0,1,1,2,2,3,3,4,4,5,5,6,6,8,8,9,9,11,11,12,12,13,13,14,14,16,16,21,21,22,22,24,24,25,25,26,26,32,32],"right_children":[2,4,6,8,10,12,14,-1,16,18,-1,20,22,24,26,-1,28,-1,-1,-1,-1,30,32,-1,34,36,38,-1,-1,-1,-1,-1,40,-1,-1,-1,-1,-1,-1,-1,-1],"split_conditions":[1.0145091E0,4.20051E-1,1.051737E-1,6.099545E-1,-4.3339187E-1,-2.7244776E-1,-4.4451535E-1,-5.1630575E-2,3.1639078E-1,-5.754613E-2,-3.7380204E-2,-1.14031866E-1,-5.082172E-2,1.9045223E-1,5.8958167E-1,1.8704097E-1,1.5637653E-1,6.942449E-2,3.002959E-1,8.236264E-2,2.8481424E-1,-1.4814016E-2,-2.6017684E-1,1.2159177E-1,3.597707E-1,9.4590473E-1,-4.814342E-1,2.2715537E-2,-4.622659E-2,-4.276504E-2,2.081101E-2,-3.2264154E-2,-4.9460328E-1,2.2569826E-2,-4.6759225E-2,5.8512557E-2,3.104536E-1,-3.8352653E-2,1.2147309E-1,1.2178062E-2,2.516538E-1],"split_indices":[61,5,16,22,35,50,32,0,15,36,0,8,53,18,31,0,9,0,0,0,0,8,12,0,31,22,60,0,0,0,0,0,32,0,0,0,0,0,0,0,0],"split_type":[0,0,0,0,0,0,0,0,0,0,0,0,0,0,0,0,0,0,0,0,0,0,0,0,0,0,0,0,0,0,0,0,0,0,0,0,0,0,0,0,0],"sum_hessian":[1.0584489E3,8.7664246E2,1.8180638E2,8.705444E2,6.098048E0,1.60458E2,2.1348385E1,8.596285E2,1.0915913E1,3.5696342E0,2.528414E0,1.1177371E2,4.8684284E1,1.117458E1,1.0173805E1,1.7134984E0,9.2024145E0,1.0479755E0,2.5216587E0,1.542169E0,1.10231544E2,4.4962535E0,4.418803E1,1.0014496E0,1.017313E1,6.6615105E0,3.5122952E0,1.0340297E0,8.168385E0,3.4504051E0,1.0458483E0,1.500221E0,4.268781E1,1.0294783E0,9.143651E0,1.2642801E0,5.39723E0,2.5070114E0,1.0052837E0,1.3183286E0,4.136948E1],"tree_param":{"num_deleted":"0","num_feature":"63","num_nodes":"41","size_leaf_vector":"1"}},{"base_weights":[1.2832957E-2,-5.116591E-1,2.2374947E0,-5.162772E-2,6.600768E-1,2.502838E0,6.614335E-1,1.7217284E-1,-3.3633318E-2,-4.332664E-2,2.5934634E0,2.511093E0,-1.0159835E-1,2.7894695E0,1.7296861E0,2.9679438E-1,-2.81775E-2,-2.6679632E-1,1.7091936E-1,8.211768E-2,2.8064208E0,6.730067E-1,2.8172776E-1,-4.8734125E-2,3.2265738E-1,2.8178653E-1,6.9697015E-2,1.8588606E-1,-3.8896054E-2,1.6988505E-1,-4.191215E-2],"categories":[],"categories_nodes":[],"categories_segments":[],"categories_sizes":[],"default_left":[0,0,0,0,0,0,0,0,0,0,0,0,0,0,0,0,0,0,0,0,0,0,0,0,0,0,0,0,0,0,0],"id":65,"left_children":[1,3,5,-1,7,9,11,-1,-1,-1,13,15,17,19,21,-1,-1,23,-1,-1,25,27,-1,-1,29,-1,-1,-1,-1,-1,-1],"loss_changes":[1.2386893E3,4.9894867E0,8.304352E1,0E0,4.6109924E0,4.715381E1,4.336331E1,0E0,0E0,0E0,2.3610596E1,1.2267567E1,7.2119946E0,2.208252E0,3.6827316E1,0E0,0E0,2.9602747E0,0E0,0E0,1.2635498E0,2.3900103E1,0E0,0E0,7.3192616E0,0E0,0E0,0E0,0E0,0E0,0E0],"parents":[2147483647,0,0,1,1,2,2,4,4,5,5,6,6,10,10,11,11,12,12,13,13,14,14,17,17,20,20,21,21,24,24],"right_children":[2,4,6,-1,8,10,12,-1,-1,-1,14,16,18,20,22,-1,-1,24,-1,-1,26,28,-1,-1,30,-1,-1,-1,-1,-1,-1],"split_conditions":[7.146454E-1,6.850447E-1,1.3194438E0,-5.162772E-2,5.8958167E-1,5.600293E-1,1.3384842E0,1.7217284E-1,-3.3633318E-2,-4.332664E-2,-5.0126217E-2,1.9655958E-1,2.5145385E-1,-4.257362E-1,1.1336432E0,2.9679438E-1,-2.81775E-2,7.490144E-1,1.7091936E-1,8.211768E-2,2.8495407E-1,9.25664E-2,2.8172776E-1,-4.8734125E-2,-1.6233648E-1,2.8178653E-1,6.9697015E-2,1.8588606E-1,-3.8896054E-2,1.6988505E-1,-4.191215E-2],"split_indices":[10,55,61,0,31,7,25,0,0,0,30,12,53,59,34,0,0,31,0,0,0,40,0,0,0,0,0,0,0,0,0],"split_type":[0,0,0,0,0,0,0,0,0,0,0,0,0,0,0,0,0,0,0,0,0,0,0,0,0,0,0,0,0,0,0],"sum_hessian":[1.0596154E3,8.580818E2,2.015336E2,8.552703E2,2.811462E0,1.7198964E2,2.9543962E1,1.0087407E0,1.8027213E0,5.0364647E0,1.6695317E2,7.9591975E0,2.1584764E1,1.3425829E2,3.2694885E1,6.786405E0,1.1727922E0,2.05616E1,1.0231651E0,1.5685754E0,1.3268971E2,1.740418E1,1.5290705E1,1.50891905E1,5.4724097E0,1.316397E2,1.0500201E0,7.867965E0,9.536216E0,1.4647249E0,4.0076847E0],"tree_param":{"num_deleted":"0","num_feature":"63","num_nodes":"31","size_leaf_vector":"1"}},{"base_weights":[1.1743258E-2,-4.9194986E-1,2.4828384E0,-5.140234E-1,7.728953E-1,2.6417494E0,-4.6715114E-2,-5.163018E-2,-1.0926241E-2,2.9018268E-1,-4.6901282E-2,4.1823477E-2,2.6942673E0,7.32969E-2,-3.8722653E-2,7.20813E-2,-3.6898475E-2,2.7090704E-1,1.9918585E-2],"categories":[],"categories_nodes":[],"categories_segments":[],"categories_sizes":[],"default_left":[0,0,0,0,0,0,0,0,0,0,0,0,0,0,0,0,0,0,0],"id":66,"left_children":[1,3,5,7,9,11,-1,-1,13,-1,-1,15,17,-1,-1,-1,-1,-1,-1],"loss_changes":[1.3313661E3,2.520549E1,8.613721E1,9.9606323E-1,4.2712666E1,2.3373535E1,0E0,0E0,1.6726707E0,0E0,0E0,1.4992651E0,5.687134E0,0E0,0E0,0E0,0E0,0E0,0E0],"parents":[2147483647,0,0,1,1,2,2,3,3,4,4,5,5,8,8,11,11,12,12],"right_children":[2,4,6,8,10,12,-1,-1,14,-1,-1,16,18,-1,-1,-1,-1,-1,-1],"split_conditions":[5.077198E-1,4.391426E-1,1.6091463E-1,4.2102608E-1,-4.1537847E-2,-5.2245617E-1,-4.6715114E-2,-5.163018E-2,-2.0809889E-1,2.9018268E-1,-4.6901282E-2,-3.038089E-1,-2.1438944E-1,7.32969E-2,-3.8722653E-2,7.20813E-2,-3.6898475E-2,2.7090704E-1,1.9918585E-2],"split_indices":[60,60,5,60,13,37,0,0,26,0,0,59,44,0,0,0,0,0,0],"split_type":[0,0,0,0,0,0,0,0,0,0,0,0,0,0,0,0,0,0,0],"sum_hessian":[1.0676694E3,8.875563E2,1.8011319E2,8.729161E2,1.4640186E1,1.7100589E2,9.107304E0,8.6895465E2,3.9614396E0,4.9014044E0,9.738782E0,3.4214542E0,1.6758443E2,1.012343E0,2.9490967E0,1.0052845E0,2.4161696E0,1.6651076E2,1.0736699E0],"tree_param":{"num_deleted":"0","num_feature":"63","num_nodes":"19","size_leaf_vector":"1"}},{"base_weights":[-2.9137193E-3,2.5394492E0,-5.1408684E-1,-4.641802E-2,2.6939723E-1,3.955996E-2,-5.163136E-2],"categories":[],"categories_nodes":[],"categories_segments":[],"categories_sizes":[],"default_left":[0,0,0,0,0,0,0],"id":67,"left_children":[1,3,5,-1,-1,-1,-1],"loss_changes":[1.3868937E3,8.416736E1,2.0040894E0,0E0,0E0,0E0,0E0],"parents":[2147483647,0,0,1,1,2,2],"right_children":[2,4,6,-1,-1,-1,-1],"split_conditions":[-2.6826724E-1,-1.8777786E-1,-5.6284946E-1,-4.641802E-2,2.6939723E-1,3.955996E-2,-5.163136E-2],"split_indices":[8,48,18,0,0,0,0],"split_type":[0,0,0,0,0,0,0],"sum_hessian":[1.0651753E3,1.7765002E2,8.8752527E2,8.594065E0,1.6905595E2,1.7358425E0,8.857894E2],"tree_param":{"num_deleted":"0","num_feature":"63","num_nodes":"7","size_leaf_vector":"1"}},{"base_weights":[-1.1629218E-2,2.5902343E0,-5.073961E-1,2.70047E-1,-4.426083E-2,-5.129523E-1,5.783052E-1,2.9971577E-2,-5.151866E-1,2.2080255E-1,-3.8927358E-2,7.183653E-2,-3.7204783E-2,-5.163101E-2,-4.578143E-2,2.391963E-2,-2.8392209E-2],"categories":[],"categories_nodes":[],"categories_segments":[],"categories_sizes":[],"default_left":[0,0,0,0,0,0,0,0,0,0,0,0,0,0,0,0,0],"id":68,"left_children":[1,3,5,-1,-1,7,9,11,13,-1,-1,-1,-1,-1,15,-1,-1],"loss_changes":[1.371347E3,5.8081543E1,5.683304E0,0E0,0E0,1.09375E0,8.77012E0,1.5370582E0,4.4328308E-1,0E0,0E0,0E0,0E0,0E0,2.858493E-1,0E0,0E0],"parents":[2147483647,0,0,1,1,2,2,5,5,6,6,7,7,8,8,14,14],"right_children":[2,4,6,-1,-1,8,10,12,14,-1,-1,-1,-1,-1,16,-1,-1],"split_conditions":[-3.5585544E-1,-3.000104E-1,-6.345992E-2,2.70047E-1,-4.426083E-2,-3.4713465E-1,-3.0833077E-1,2.0340125E-1,-7.4865766E-2,2.2080255E-1,-3.8927358E-2,7.183653E-2,-3.7204783E-2,-5.163101E-2,6.1522555E-1,2.391963E-2,-2.8392209E-2],"split_indices":[30,45,44,0,0,30,30,40,44,0,0,0,0,